weights: {-0.18022247, 0.17805803, -0.09426213, 0.16981477, 0.009346515, 0.050367326, 0.18172781, 0.0786774, -0.14898638, 0.1284974, 0.016483568, 0.1575241, 0.012690411, 0.002218449, 0.13840061, -0.04031681, 0.15021184, 0.13817322, 0.12050292, -0.11578879, -0.14426512, 0.0058874334, 0.052560005, -0.12929538, 0.04251239, 0.07740202, -0.11291715, -0.12554578, 0.014156422, -0.09969672, -0.17714731, -0.20469463, -0.074185826, 0.062002998, -0.113878526, -0.074343435, 0.06787139, -0.18331018, -0.06260356, 0.101554886, 0.0366331, 0.024613703, -0.011324304, 0.028004108, 0.16915026, -0.17861138, 0.17193356, -0.11487036, 0.097123064, -0.1162666, 0.14176047, -0.15672638, -0.061776727, 0.026883746, 0.12840286, 0.1597391, -0.17013094, -0.18735646, -0.064052485, -0.13167882, -0.029901674, -0.11064816, 0.16567202, 0.09462783, -0.1188715, -0.17540547, -0.100250676, -0.0003671748, 0.17744696, -0.1709408, 0.06779668, 0.035447795, -0.15139277, 0.08493718, -0.020081388, 0.086203635, 0.08666673, 0.051990133, -0.068686284, 0.13665973, -0.10833649, -0.0712987, 0.0517816, 0.0124259535, -0.09115182, 0.054275617, -0.03991209, 0.1587546, -0.013876099, -0.07546378, 0.15293671, -0.043246854, 0.124366336, -0.18041383, 0.12010114, 0.08284671, -0.13683183, -0.1742481, -0.1164114, 0.042424724, -0.056201935, 0.11926686, 0.06005977, 0.11451989, 0.13002229, -0.08670047, 0.122691825, -0.008635428, 0.123996, 0.15246658, -0.07975556, 0.023901304, 0.15851194, -0.06488779, 0.005356861, -0.06247058, -0.027710706, -0.1337379, -0.13661258, -0.07067092, 0.17462942, 0.10975786, 0.13410327, -0.09443645, -0.011727958, 0.1406096, -0.08838382, -0.064428516, 0.13840477, 0.08661171, 0.10941162, -0.029493706, -0.15918443, 0.002800339, -0.021367114, -0.022399569, -0.05284912, 0.12288994, 0.11785256, -0.103791244, -0.034472592, -0.014536922, 0.1579373, 0.03905716, 0.008311953, -0.08536373, -0.056956917, 0.12601729, -0.0036010146, 0.034039047, -0.11470302, -0.11729419, 0.19114918, -0.14481997, 0.12560458, 0.100300096, -0.08399798, 0.121816866, 0.01835181, -0.042157575, 0.036084622, 0.119463116, -0.02961879, -0.14357899, -0.18339616, 0.14854965, 0.112215936, -0.044825457, -0.02307383, 0.14742193, -0.06452827, 0.19535501, 0.15229994, 0.19229151, -0.14946917, -0.067650035, -0.0022951532, -0.057987604, -0.14759555, 0.055291414, -0.08899238, 0.0104216235, -0.18886407, 0.0149985785, -0.056368288, -0.1507967, 0.06929291, -0.17874187, 0.07971759, 0.0031429115, -0.012811073, -0.05919605, -0.0030066674, -0.023624802, 0.005407986, 0.094688885, -0.04511118, -0.13479628, 0.112621725, 0.12530677, -0.048841428, -0.17119937, 0.015169283, -0.041755777, -0.07650909, 0.061135296, -0.18404444, 0.17029092, -0.013084479, -0.106201395, -0.17353295, -0.17554925, 0.0846622, 0.06574877, 0.13267887, 0.10169082, 0.08232815, 0.14867824, 0.15996979, -0.08985852, 0.1585635, 0.057096038, 0.1544831, -0.05586075, 0.044333242, -0.05484694, 0.12354247, 0.099557675, -0.18334426, -0.18372332, -0.09802705, 0.120471574, 0.20501125, 0.0017065344, 0.13016205, 0.14303227, 0.07640863, -0.009205654, 0.07718361, -0.09540348, -0.19744125, -0.16420338, 0.123410344, 0.11534927, -0.013586566, 0.17893042, -0.06729254, 0.035014424, -0.115074076, -0.08124137, -0.09395064, 0.20692134, 0.014025042, -0.15897405, 0.123283006, 0.15065867, 0.105744325, 0.13074276, -0.16187784, 0.12968317, -0.15678592, 0.16906573, -0.12940818, 0.13827269, 0.12111074, -0.17892703, 0.15845363, -0.10721619, 0.14616549, -0.14942138, -0.0067092907, 0.14640152, 0.14015901, 0.03426175, 0.10974325, -0.12813446, 0.1539712, -0.13028772, 0.088204004, -0.1917915, -0.16789821, 0.02003543, 0.19102515, -0.1416387, -0.07600284, -0.15695664, 0.030589392, 0.09292927, 0.10040767, 0.08839428, -0.12467702, -0.026538199, -0.13775143, 0.0815446, 0.070257425, 0.15214159, 0.038092975, 0.07134322, -0.1791707, 0.09332112, 0.17488784, -0.07943825, 0.18145832, -0.09855877, -0.11929552, 0.07304263, 0.14645575, -0.08985719, 0.01660508, 0.061795134, -0.1254737, 0.06398202, 0.03823094, 0.024941212, -0.036617696, -0.1419337, 0.13615413, 0.13227351, -0.08804442, -0.09909988, -0.18949543, -0.0024418104, -0.03907448, -0.06621706, 0.0074549466, 0.015857808, 0.10453799, -0.0042051338, -0.0106639685, -0.102898896, 0.08335967, -0.16739866, -0.036879595, 0.19226305, 0.18191265, 0.11695845, -0.068528116, -0.06163246, -0.17499208, 0.16750285, -0.08840658, 0.16389668, 0.1422141, 0.17064886, -0.09621182, 0.020383717, 0.077973135, -0.052975874, -0.01935326, -0.12315604, -0.1204825, -0.057814594, 0.07604096, -0.06252428, 0.044633336, -0.17444006, -0.080119625, 0.1604518, -0.039219815, -0.09066279, 0.19738913, -0.1820147, 0.051948167, 0.18596658, -0.060067583, 0.043192837, 0.15922423, 0.06457242, -0.11832438, 0.12683077, 0.16986701, -0.039138246, 0.0043151677, -0.01360125, -0.09978242, -0.20263048, 0.05798912, 0.10395808, 0.154458, -0.053300098, 0.15193374, 0.06874591, 0.013510126, 0.15617085, 0.16618426, -0.011801813, 0.0711216, 0.1054205, 0.044410646, -0.12369437, 0.1113583, -0.18674824, 0.002475774, 0.106189325, 0.102726184, 0.18347561, -0.10617578, 0.124180496, 0.038291063, -0.067620434, -0.094741896, 0.20516305, -0.18298057, 0.1632843, -0.12675585, -0.039659478, -0.14824255, -0.16720957, -0.18165751, 0.048439793, -0.018012492, 0.18538247, -0.059579983, 0.18024033, 0.02348327, -0.111545384, 0.11229738, -0.10060622, -0.05318355, 0.17528711, 0.060001194, -0.17111269, -0.06578917, -0.10049716, -0.10408127, -0.16410695, -0.0015484286, 0.06963253, 0.13329156, -0.16164133, -0.091204435, -0.15000343, 0.08821208, 0.008772237, 0.006932861, -0.041356843, 0.019133141, 0.08197431, 0.055389825, -0.085848585, 0.022512771, -0.026720807, 0.1075654, 0.077310964, 0.01626554, -0.076217115, 0.05687979, -0.04746624, 0.097329654, 0.092028946, 0.10111492, -0.056971762, 0.0014562111, 0.043406513, 0.0027840477, 0.0995239, 0.088838324, 0.058563516, -0.0919019, 0.0909891, -0.08749962, 0.102025755, 0.045404, -0.064021446, 0.0617934, 0.052225787, 0.15823458, -0.02302789, -0.053561524, -0.039697755, -0.122290604, -0.039555773, 0.018360708, 0.10207704, -0.03901924, -0.036749005, -0.033455957, 0.15474227, -0.0075368215, -0.10901146, 0.11736724, -0.025719577, 0.03860698, 0.119159214, 0.009493945, 0.09288765, 0.1374878, 0.052558545, -0.047446005, 0.013695757, 0.14405084, -0.06783853, -0.098175265, -0.023965867, -0.033879854, -0.11592689, -0.012841369, 0.062329907, 0.007755636, 0.11475735, 0.019723505, 0.024557827, -0.07831673, -0.0991304, -0.15416853, 0.1414957, 0.13125059, 0.06672717, -0.07627569, 0.066486545, -0.1395317, 0.042050447, 0.08281711, 0.024807429, 0.029454231, -0.09568283, -0.057200957, 0.025166335, -0.033524323, 0.11585666, -0.030487154, -0.11599748, 0.14196487, -0.16838993, 0.11052989, 0.018940346, 0.115214705, -0.05758656, 0.011117964, -0.013143385, -0.10671803, -0.008814244, 0.11294614, 0.024058128, 0.017985072, 0.015044899, -0.0943943, 0.060794875, -0.07794667, 0.07281278, 0.094310895, -0.05067029, 0.10255483, 0.044873893, -0.036987755, -0.07144665, 0.012714191, -0.023122791, -0.10802214, -0.03466773, 0.05965414, 0.0853204, -0.096549824, -0.06068851, 0.1155679, -0.08114212, 0.0132694505, -0.07068211, -0.091847666, 0.0017250648, -0.020916216, -0.0327005, -0.09391962, 0.088809006, 0.078393586, 0.064880826, 0.07321011, 0.09296716, 0.057390355, -0.044361584, 0.079168074, -0.04506673, 0.095170505, 0.064564444, -0.05558523, -0.03142433, 0.10214045, -0.058270294, -0.100942515, -0.017234854, 0.08541531, 0.034448586, 0.008287109, -0.09653581, 0.024800353, 0.10355472, 0.022389777, -0.08502534, -0.10736865, 0.0021362007, 0.039210282, 0.05279421, -0.107080095, -0.03392804, -0.003467557, -0.038085986, -0.07420082, -0.051958464, -0.055144213, -0.11614653, -0.007030677, -0.041289076, -0.025826717, -0.11649992, 0.019927887, 0.026993036, 0.106742926, 0.029940534, -0.07779117, 0.13248049, -0.08579094, -0.10211186, -0.09911554, -0.09480112, -0.073361605, 0.052833393, -0.101579435, 0.13965222, 0.06353752, 0.15247047, -0.12925236, 0.08075646, 0.029148772, -0.047743928, -0.007817217, -0.124062926, 0.07054574, 0.031054394, -0.029748904, -0.02172389, -0.052527208, -0.08316979, 0.011197682, -0.09181323, -0.06363181, -0.047797352, 0.13762714, 0.0563169, 0.01935663, 0.084910706, -0.06281128, 0.023857301, 0.09247329, 0.068677545, -0.005101346, 0.01496361, -0.048513368, 0.0028349464, 0.001974143, -0.031213915, -0.12865417, 0.14508379, -0.041973736, 0.06464376, -0.13358851, -0.02999854, 0.030244326, -0.027719773, 0.14230047, 0.028740156, 0.046718255, 0.05891206, -0.09843919, 0.051479857, -0.0050130878, 0.11872678, 0.11874055, -0.006773881, 0.028840577, -0.12511635, 0.020607919, -0.06930882, -0.100282654, 0.1523546, -0.097354636, 0.028410034, 0.021833463, 0.039901007, -0.030216765, -0.05360067, -0.04596433, 0.121955246, -0.08907144, -0.061565746, 0.019411594, 0.117201746, 0.0010846698, 0.064519405, 0.05612791, 0.018318566, 0.14478464, -0.0719789, -0.09195886, -0.13518173, 0.044220164, 0.01994709, -0.030088412, 0.16311593, 0.10806649, -0.110210165, -0.02327966, 0.11378157, 0.0040530907, 0.117852405, 0.095368065, -0.0750499, 0.0025033741, 0.09646491, -0.06166638, 0.11398872, -0.047377594, -0.022062771, -0.026173225, 0.12709033, 0.15707555, 0.117404304, 0.010880514, -0.026513217, -0.041860223, 0.057818424, 0.037312638, -0.06290473, 0.1307143, -0.06917481, 0.031774145, -0.0031571425, 0.034187652, -0.08765575, -0.02063145, 0.09128539, 0.026027147, 0.0953611, 0.022725487, -0.023420641, 0.09750782, 0.02249075, -0.048775144, -0.082851045, 0.15416038, 0.04024293, -0.007524891, 0.016386986, -0.05078507, 0.07036554, -0.03525669, 0.07885492, -0.064533256, 0.073859505, -0.07459571, -0.030686822, 0.12115352, -0.014511828, 0.034338534, 0.07067192, 0.030516278, -0.052480586, 0.12541063, 0.05802241, -0.08834241, -0.05138378, 0.07864294, 0.08152525, 0.060991846, -0.023340521, -0.082014, 0.013962025, 0.022354165, -0.0689209, -0.10064701, -0.08067692, -0.1155153, -0.033257753, 0.09729348, -0.03353271, 0.07507667, -0.01707814, 0.014599185, -0.08038498, 0.031719938, 0.0022644603, 0.035584994, 0.116695575, -0.06596551, 0.11238294, 0.07512953, 0.0061160717, 0.07549322, 0.017163567, -0.09080992, 0.062478688, -0.10285548, 0.0996427, -0.00094704947, 0.024380852, 0.06443071, -0.059620604, 0.023129482, -0.009212022, -0.08305746, -0.07750263, -0.011505347, -0.0117267715, -0.020238081, 0.12667386, -0.07137821, 0.083888024, 0.10841135, -0.051786907, 0.06126091, 0.11497227, 0.11240082, -0.030825727, -0.0326854, -0.09962571, -0.10625039, -0.09173801, 0.065614134, 0.061939944, 0.049654827, 0.09500043, 0.032288197, 0.044872794, -0.023917075, 0.026209615, -0.05680445, -0.035925586, 0.015438241, 0.019957062, 0.06241841, -0.016422147, 0.08769957, -0.0070696874, -0.07574313, 0.13160092, 0.028855857, -0.06865031, -0.038385812, 0.05543264, -0.119407944, 0.018834338, -0.0034284967, 0.013930348, -0.079157434, 0.010196384, -0.048321318, 0.12709384, -0.11474397, -0.008297583, -0.02300356, 0.018411266, 0.06410392, 0.06457103, -0.103220396, -0.12984893, 0.06375926, -0.05731078, 0.093678996, 0.04068996, -0.024117906, -0.04031645, 0.1502388, -0.07692789, -0.04215854, -0.11733279, -0.091795586, -0.018505, 0.10803009, -0.064885125, 0.06569359, 0.02752547, 0.04782371, 0.100316495, 0.11290184, 0.12893961, -0.090489395, 0.0072972267, -0.1203132, -0.12096833, 0.0085959295, -0.09526224, 0.07356145, 0.022258662, 0.07435698, -0.07541186, -0.008900862, -0.09413092, -0.060922235, -0.06249935, -0.03152677, -0.05225505, -0.046107773, -0.11046646, 0.06835543, -0.07256324, 0.098085195, -0.1036348, -0.018694248, 0.045709543, 0.007879143, -0.037824173, -0.09853218, -0.096694976, -0.036610864, -0.09412372, 0.085050814, -0.034559447, 0.055440642, 0.10926872, -0.04480777, 0.108306944, -0.07627548, -0.075490154, 0.0173484, -0.096440576, 0.044728413, 0.06236462, 0.11209868, -0.012790382, -0.042995185, 0.029053641, -0.055379927, 0.028791409, -0.011098064, 0.10945934, 0.061145727, 0.11422561, 0.10320001, -0.033949286, -0.058325965, 0.17772047, 0.0034538184, -0.0023153631, 0.0984591, -0.088182814, -0.045554847, 0.09440162, 0.05674509, 0.061729062, 0.020190084, -0.04033079, 0.026057443, 0.034394547, 0.101497754, -0.025880663, -0.0682759, -0.025363721, -0.076602146, -0.027192904, 0.060609806, -0.043894157, -0.041251183, -0.017692061, 0.023106502, -0.010252301, -0.09873132, -0.115684465, 0.0054633175, 0.045588143, 0.02237157, -0.019280564, -0.08007106, 0.075837396, 0.015206878, -0.07005414, -0.036896408, -0.08407825, -0.040121555, 0.003798194, 0.027314112, 0.034116115, 0.0811453, -0.054869592, -0.10989459, 0.044093166, -0.101584576, 0.10499819, 0.095123366, 0.06988533, 0.08534741, 0.08060225, 0.09334266, 0.007571902, -0.0740433, 0.03253711, -0.027339095, 0.11356024, 0.05892585, 0.0898381, -0.013028955, 0.17065792, 0.020929502, -0.04835853, 0.018030487, 0.028045107, 0.10111539, -0.03130055, 0.078416675, 0.058686845, 0.12233658, 0.017209092, -0.02695736, 0.026309857, 0.018470017, -0.0131836, 0.069369994, -0.020211613, 0.020922627, 0.058682084, 0.07444623, -0.12629122, 0.025262928, 0.00043203682, -0.0059051877, 0.09512658, 0.1341437, -0.07587214, 0.116056845, 0.073919415, 0.09384665, -0.05614879, -0.038946174, 0.09722615, 0.03291885, -0.051150538, -0.10918831, -0.029241866, 0.050008066, -0.07528758, 0.07688912, -0.011271015, -0.043352395, 0.106118545, -0.06109269, 0.11039933, -0.044800658, 0.103493154, 0.09053331, 0.05979135, -0.099528514, 0.004446325, 0.045415837, -0.076425105, -0.073433354, -0.062194645, 0.08389482, -0.046224788, 0.020355254, -0.0191614, -0.022690162, 0.10601928, -0.11994861, -0.0122230435, 0.02098227, -0.030055236, -0.10375665, -0.01915552, 0.0027404325, 0.013958468, -0.12506221, 0.09178635, -0.013176569, 0.07622841, -0.09186099, -0.074348345, 0.10512118, 0.027844742, -0.038519315, -0.027149998, -0.06966837, 0.06649325, -0.07385692, 0.06008735, 0.114779525, -0.08645575, -0.029508188, 0.04028947, 0.038789622, 0.008109592, -0.009536229, 0.06295655, -0.0724377, 0.044493385, -0.038278133, -0.044617414, 0.08493779, -0.11645891, -0.041090734, 0.04918795, -0.11130994, -0.0891822, -0.0050199404, -0.109392144, 0.0354824, -0.008646145, 0.11086414, -0.022771686, 0.10238757, -0.064360425, -0.040948898, 0.022282816, 0.09295074, -0.025802188, 0.056438647, -0.09690122, -0.0745733, -0.028479684, -0.029154757, -0.06992893, -0.07763955, 0.0474994, -0.017162707, -0.11707611, 0.089894034, 0.023923416, -0.05488725, 0.019986255, 0.09322772, -0.09310811, 0.120511815, -0.027854055, 0.10069221, 0.12899454, -0.0063297967, -0.08267466, -0.070586085, -0.122465774, 0.08030369, -0.1210619, 0.061001234, 0.101714134, -0.058507968, 0.0617918, 0.0606447, -0.146911, -0.07965633, -0.059177287, -0.059284534, -0.12615079, -0.0329702, -0.009261071, 0.039596535, -0.11001182, -0.024084546, -0.08680959, 0.003727883, -0.0190691, 0.030900294, 0.06808512, 0.054789707, 0.0798023, -0.011001252, -0.03335995, 0.06781761, 0.20475167, 0.059434745, -0.10711691, 0.034688704, -0.05204768, -0.024222713, -0.018555835, -0.097858384, 0.09189796, 0.0052517867, 0.011659612, 0.004619223, -0.10506697, 0.00988782, 0.0056173755, 0.016202103, 0.10722218, -0.030860629, -0.105285086, 0.061882094, -0.086223155, -0.057567555, -0.088117994, 0.12019717, -0.057848543, -0.023958266, -0.016882675, 0.03735722, -0.044668075, -0.07151405, -0.08135111, 0.02333995, -0.059305623, -0.13263991, -0.12039257, -0.108971395, -0.044220068, 0.027219184, -0.10144453, 0.1001029, 0.115226254, 0.0063121403, 0.12441326, 0.016055763, -0.08415017, 0.055861663, 0.08734592, 0.08149539, 0.02205506, 0.048657864, 0.008158363, -0.086022705, -0.0066216597, -0.039121218, 0.06463202, 0.03774394, 0.15584488, -0.025379345, -0.12160544, -0.038682766, 0.15319942, 0.017401868, 0.014104156, 0.073648535, 0.0292197, -0.06281608, 0.019331258, -0.015926449, -0.0063285455, 0.021104714, 0.104489826, -0.010189003, 0.097842306, 0.07252644, -0.06833986, -0.11610201, -0.02180747, 0.11694414, -0.08019763, 0.10790666, -0.04906982, -0.04564087, -0.07934883, -0.03778143, 0.09319753, -0.075724356, 0.03309966, -0.013925017, 0.015941028, -0.06823744, 0.006489262, 0.011439911, 0.04850192, -0.055232216, 0.04588926, -0.02486815, 0.019196346, 0.16254407, -0.066774264, 0.08678399, -0.060121607, -0.046857703, -0.08975244, 1.6663646e-05, 0.122914016, 0.14604238, -0.026125837, -0.0600212, -0.03962153, 0.022752784, 0.09391603, 0.084809706, -0.027746173, 0.06976468, -0.044697445, -0.0819551, 0.10539457, 0.096529625, 0.09400397, 0.05628918, -0.11056465, -0.014816458, -0.08279865, -0.048745725, 0.07038505, -0.08658256, -0.09822872, -0.048664138, -0.08356186, -0.040083036, -0.11914903, -0.031986605, 0.06941649, -0.031608876, -0.040671624, 0.012581165, -0.063032575, -0.11647168, 0.02198944, -0.07209016, -0.03423536, 0.0875361, 0.11640062, 0.09214772, 0.0609114, -0.059349906, 0.052211262, -0.047671728, -0.04062443, 0.03433206, -0.02402284, 0.13571706, -0.055558283, -0.06021016, -0.01565254, 0.022414833, -0.07579285, 0.0004655757, -0.07819702, -0.097249396, 0.15798882, -0.06801071, 0.025272543, 0.090166554, -0.03665108, -0.11295029, -0.09041374, -0.094587184, 0.07459964, -0.019150082, 0.061212655, -0.10414864, -0.06597332, 0.076616526, 0.0639538, -0.017767243, -0.04927561, -0.11607155, -0.029619006, 0.079583906, -0.087681554, 0.07826972, -0.07492213, -0.08846484, 0.025457034, 0.076269634, -0.03173112, -0.09612583, -0.1112658, 0.08854761, -0.09047779, -0.028711827, -0.011562642, -0.12686634, -0.12299732, -0.076243855, 0.0051234677, -0.11701419, 0.1021204, 0.06329499, -0.061447807, -0.05894022, 0.029424274, 0.0929152, 0.045351334, 0.09644932, -0.08758771, 0.008710026, 0.06380035, 0.08386677, -0.11533575, -0.09437949, -0.11432924, -0.07345238, 0.09145034, 0.12669617, -0.042592596, -0.11345933, 0.008062395, 0.08139399, 0.0008725002, -0.005168513, 0.062710896, -0.028276313, 0.088684194, 0.12141639, 0.020527637, 0.042773176, -0.063842386, 0.011882423, 0.024101594, 0.07794337, 0.045793332, 0.043419063, -0.009721745, -0.08583598, -0.03930376, -0.070307724, 0.09190376, -0.094938435, 0.046312112, 0.026241595, 0.087765545, 0.068390526, -0.02931749, -0.01687336, -0.113969326, 0.09698107, -0.0010599094, -0.10149829, 0.07436082, -0.0043716654, -0.095518105, -0.112250336, -0.016542314, -0.10398827, 0.062791064, -0.07663449, 0.04726144, 0.031266283, 0.043167625, -0.046882574, -0.10806683, -0.008697337, 0.07930848, 0.055501293, 0.11568971, -0.060166024, 0.11456225, -0.0064215665, 0.07906863, -0.0022228973, 0.0738554, 0.098035894, -0.036036868, 0.113465205, -0.010835906, 0.056107614, -0.08560848, -0.01907529, 0.13745993, 0.16567814, 0.050026394, 0.04124932, -0.021820659, -0.00017548584, -0.014208111, 0.07418994, 0.12063036, 0.009757236, -0.12707172, -0.06272373, -0.092865214, -0.038833283, 0.043626387, -0.05442283, -0.0026102732, 0.061757755, -0.02330499, 0.051439915, 0.03366032, 0.04096307, 0.04445987, 0.01810527, 0.050081197, 0.023377271, 0.062306255, 0.1003939, -0.0619883, -0.030344961, -0.022140507, 0.054852847, -0.041430358, 0.082595445, -0.071513355, -0.0025406373, -0.022459581, -0.014666378, 0.02924472, 0.07838793, -0.02145468, 0.010146441, 0.10039192, -0.029736953, -0.09658961, -0.008698556, -0.023257865, 0.02672825, 0.06746443, -0.060304236, -0.07962451, 0.03429935, 0.0031619573, 0.091273025, 0.046076562, 0.025871612, 0.107519045, -0.06344907, 0.064099856, -0.05823884, 0.10176538, 0.06564827, -0.011023317, -0.07928777, 0.20281011, 0.00911636, 0.08792584, -0.08232916, 0.094611466, 0.07058546, -0.027798453, 0.06340669, -0.006108749, 0.0352977, -0.002788044, 0.07748895, -0.10949743, -0.01328296, -0.020705922, 0.09667991, -0.013447222, 0.219101, 0.010589843, 0.0755869, -0.011647242, -0.048932593, -0.013208313, -0.032344777, -0.10553, 0.002782601, 0.04974606, 0.10806187, 0.010248952, 0.012839369, -0.022695653, -0.07997456, -0.027276222, 0.03893348, 0.06358256, -0.045606054, -0.04827842, 0.022150746, -0.022259071, 0.03608612, -0.02074934, 0.05335412, -0.0993511, 0.114626765, 0.036956377, 0.110936, -0.11524055, -0.11119892, 0.07440657, -0.061897226, 0.01885932, -0.07998646, 0.031515542, 0.09098355, 0.036584143, 0.028818455, -0.045351405, -0.090971895, -0.100231424, -0.05655618, 0.026913233, -0.0116307, -0.028289165, 0.057718795, -0.10762677, -0.025241008, -0.10884918, -0.0009566593, -0.106582604, -0.08452963, 0.06261642, -0.117649436, 0.099775895, -0.108085416, -0.059130874, 0.04258258, 0.089231424, -0.056086045, 0.078005694, 0.04245853, 0.085956536, -0.08516133, 0.008327371, -0.037554372, 0.07968848, -0.055331774, 0.059592728, 0.08254025, -0.080573335, -0.04445613, 0.0678905, 0.013446815, 0.024888076, -0.06729275, 0.09946851, 0.08403287, -0.045344055, -0.08503321, -0.08744563, 0.10404871, -0.049587257, 0.06985109, -0.103820026, 0.032866023, 0.045935594, -0.013887696, 0.1064977, -0.07549849, -0.037603892, 0.08739703, 0.055990987, 0.10025027, 0.036703803, -0.11399295, -0.09690384, 0.116664805, 0.10330457, -0.09597051, -0.07227693, -0.1434739, -0.12237577, 0.00610651, 0.023755036, -0.04534795, -0.12856883, -0.046071146, -0.042972397, 0.029578721, 0.08966928, -0.109607555, -0.020000793, -0.06354777, -0.134669, 0.049045466, 0.007321488, 0.018882968, -0.032063063, 0.043890014, -0.08423407, -0.057059053, -0.061821066, 0.044310734, -0.06169463, 0.013553185, -0.0020745103, 0.0517373, 0.16721681, 0.036852248, -0.056925807, -0.040948804, -0.00091299036, -0.10691572, 0.02595244, -0.029437134, 0.032556344, 0.0058060065, 0.07326534, -0.10605394, -0.059298653, 0.10014592, 0.09718451, -0.105071254, -0.06702862, -0.019786427, 0.018818127, -0.009207055, -0.011644612, -0.12001313, 0.15311572, -0.10850078, 0.054988854, 0.019382222, -0.06591717, -0.043897703, -0.0212868, 0.083720595, 0.17510672, 0.018308658, 0.14977323, -0.042435635, 0.013268527, -0.08216188, 0.08309543, -0.11738811, -0.013714745, -0.093083255, 0.033337254, -0.03149147, -0.086868405, 0.006824722, 0.019084176, 0.010784287, -0.0013943969, 0.02296884, -0.025066346, 0.019200288, -0.13350566, -0.057462677, -0.020994013, 0.07409761, 0.044711825, 0.013660957, 0.022476135, -0.060516085, -0.0494408, 0.07604684, -0.10197117, -0.056898553, 0.09555198, -1.3547844e-05, 0.12534592, 0.051901672, 0.13095127, 0.04015299, 0.05211617, -0.06256412, -0.09649813, -0.021204941, -0.036934353, 0.09005103, 0.07603804, 0.11732232, 0.05063813, 0.02086716, -0.036837637, 0.13862719, 0.11678279, -0.031225502, 0.1232756, 0.09764266, 0.10058232, -0.014981402, 0.0010135563, 0.03419765, 0.11910911, 0.018684896, -0.098315336, 0.14713773, 0.10186507, 0.0030581332, 0.123842254, 0.18564199, 0.058499124, -0.08544447, 0.064920455, 0.07522602, -0.05819305, -0.08821072, -0.06402708, 0.011845139, -0.07231337, 0.035434615, -0.028856244, 0.031029694, 0.0011605844, 0.09676982, 0.041091677, -0.040702235, -0.07076683, 0.10050018, -0.033622056, -0.0059572663, 0.018202694, -0.04231279, 0.025038779, 0.057997286, 0.12346815, -0.038654845, -0.0010828674, 0.12139118, 0.10402576, 0.12239701, -0.064701475, 0.12219158, 0.018035516, 0.0840238, 0.14233896, 0.12349462, -0.09678229, 0.097754814, 0.011731591, -0.068606324, -0.027322344, 0.044145964, -0.04777614, 0.12041908, -0.13307819, 0.045942802, -0.06990097, -0.08290064, 0.007555982, -0.052040905, 0.07229107, -0.065664664, -0.041365124, 0.0997827, 0.0016975899, -0.0878747, -0.03155773, -0.07315191, -0.033942103, -0.010077282, -0.06031139, -0.11503116, 0.059553567, 0.020250557, 0.088452265, 0.030314509, -0.08164065, 0.05881863, -0.08564838, -0.08794794, -0.028344365, -0.09447124, 0.033844903, 0.047264937, 0.08117606, 0.028868325, -0.057717938, 0.06652861, 0.09586091, -0.017439328, -0.064629704, -0.029241234, 0.02779228, 0.11805971, -0.12802929, -0.034459226, 0.11365826, -0.120096065, 0.053184774, -0.024944734, -0.056361392, -0.10763308, -0.06522375, -0.12164678, 0.07133554, -0.08134064, 0.059752878, -0.09069061, -0.029179562, 0.085539736, -0.027299767, 0.032625712, 0.066538624, -0.060739215, -0.0046758777, 0.02048074, 0.08727512, -0.0005192927, 0.07372914, -0.06985125, 0.06847863, -0.088242084, -0.11076554, -0.06405912, -0.08047877, -0.012562656, -0.09006538, -0.049051095, 0.0472146, -0.0026180474, 0.0058413777, -0.06399223, 8.949923e-05, -0.10750942, 0.05094395, -0.057892267, -0.06816425, -0.005495079, -0.046230495, 0.050050043, -0.012586906, 0.012175451, 0.09772399, 0.1000726, 0.061490405, 0.10977922, -0.10852119, 0.08332547, -0.105336264, -0.09169705, -0.11651551, 0.010398661, -0.02668657, 0.09395236, 0.036659256, -0.025744788, -0.047565684, 0.11235617, 0.11102369, 0.08196004, 0.1246856, -0.021093337, 0.09907522, 0.11527924, -0.051570423, -0.045841094, 0.087649666, -0.0418063, 0.018073533, -0.0906021, 0.16444613, 0.037810553, -0.09232241, 0.047741726, 0.03902722, 0.023581007, 0.05910728, -0.089550816, 0.009817177, 0.10729525, 0.0756234, 0.096021906, 0.0068216496, 0.07878012, 0.03907318, 0.08970371, -0.06375995, 0.08232228, 0.07924235, 0.06746836, -0.08515277, -0.029203933, -0.030140262, -0.014979729, 0.0641354, -0.0896365, 0.087895036, -0.070763476, 0.09392863, 0.031905573, -0.04376118, -0.069619805, -0.01598799, -0.026542727, -0.025722157, -0.032339342, 0.07949474, -0.023931481, -0.037572756, 0.0932156, 0.0060408995, 0.08390498, -0.025298867, -0.10575898, -0.07446415, -0.10840009, 0.03650546, 0.086442955, 0.034546845, -0.012373586, 0.08092185, 0.07827205, -0.0437002, -0.092038274, 0.09035242, 0.08247349, -0.021825489, 0.1456949, -0.09180939, 0.041580193, -0.04531995, -0.07489494, -0.004689136, 0.14892022, 0.0027839593, -0.05218566, 0.03251782, 0.014929194, 0.10279399, -0.009375437, -0.09633892, 0.1197349, 0.0339167, 0.038530983, -0.07836211, -0.086231105, -0.1116967, -0.06530553, 0.10374511, -0.079189576, -0.06679951, -0.085075, 0.024928268, 0.099585205, -0.0055246837, 0.10354579, -0.04093549, 0.03921241, 0.061317418, 0.1466053, -0.01043997, 0.04371776, -0.11374798, -0.09622336, 0.11274336, 0.020169005, -0.0026957132, -0.05105401, -0.013165327, 0.0065852758, -0.027629228, 0.043643977, 0.032353282, -0.0316347, 0.0753135, -0.00032472052, 0.06355831, -0.02327552, 0.011981322, -0.18029045, 0.08298864, 0.14318371, -0.010707971, -0.0326904, 0.1743232, -0.042108934, -0.045503, 0.070881076, 0.07532025, 0.123827994, 0.056154616, 0.034801356, -0.012773255, 0.06557355, -0.114915505, 0.013820609, 0.08047083, -0.05687324, 0.044903908, -0.021248743, -0.078602344, 0.11570545, -0.071410246, -0.07531313, 0.058925573, 0.012519608, -0.103290744, -0.00771237, 0.09078481, 0.008613334, 0.021798795, 0.08343028, 0.016415602, -0.12972572, -0.075000204, 0.025264323, 0.050101265, 0.052049942, -0.007774993, -0.10288095, -0.0049127904, -0.118125916, -0.02576016, 0.040829673, 0.05919024, -0.111272745, 0.035916187, -0.011809667, 0.063844964, 0.04618341, -0.14100859, 0.10571679, -0.010192875, 0.097613275, -0.12712438, 0.06796136, 0.11259285, 0.106461145, -0.037050158, 0.038408928, -0.098850496, -0.04806464, -0.0863913, 0.098696336, 0.02371592, 0.016287602, -0.0779233, -0.056086518, 0.021006636, 0.088996254, 0.08530817, 0.100378975, -0.0346325, 0.0068152254, 0.023872873, -0.02816668, -0.061828766, 0.00417306, 0.0013639554, -0.107055634, 0.12977459, 0.0271235, -0.008079026, 0.11616257, 0.00065031025, 0.03157087, 0.011304679, 0.09243599, -0.042282224, -0.058500163, 0.008921273, -0.09239806, 0.0044284835, 0.087446444, -0.0062731355, 0.106176816, 0.10539753, -0.09737161, 0.033418097, 0.026461951, 0.009368353, 0.0739535, -0.026777774, -0.050381415, 0.055088036, 0.0017974526, -0.044649698, 0.0693847, 0.05681718, -0.018147841, -0.09236426, -0.085503146, -0.02711717, 0.01531408, -0.05987516, -0.1039443, 0.07068979, 0.1103806, -0.0017718524, -0.062975645, -0.10911753, 0.09858463, -0.014686689, 0.10315258, 0.068025984, -0.08491106, -0.08317261, -0.004975916, 0.09351154, 0.10323692, -0.034626197, 0.15906186, -0.07113367, 0.020959016, 0.09027152, 0.06673022, 0.04792705, 0.029500699, 0.032863494, 0.0793981, 0.025881022, -0.09157972, -0.025561536, 0.017058045, 0.14142597, 0.020833055, 0.033621095, -0.0716162, -0.02725302, 0.12228833, 0.012025244, 0.040004022, 0.017013578, -0.06349607, 0.10071515, -0.0477406, 0.10216038, -0.092906736, -0.093506984, 0.027651744, -0.039300725, -0.052241363, -0.061292015, 0.017499918, 0.024041131, 0.03505463, 0.056358743, 0.1014417, 0.08896386, 0.11031954, 0.054740835, 0.10281062, -0.050716046, -0.021082032, -0.09446972, -0.09242717, 0.08704256, -0.06716223, 0.04692057, -0.10557084, -0.03450236, -0.10141065, 0.05741533, -0.112499684, 0.08745983, 0.07584926, -0.09582334, -0.040037304, -0.10753513, -0.009193665, -0.11560368, 0.11428025, -0.048793517, 0.027792023, 0.017904153, -0.031187573, 0.1114279, 0.04481776, 0.10485376, -0.09773256, 0.012483895, -0.09944651, 0.044146694, -0.10900206, -0.048574176, 0.026396047, -0.04960136, -0.018731058, -0.060535934, -0.034412824, 0.121375404, -0.027946563, -0.10371498, -0.018921252, -0.0954563, -0.035368323, -0.14797069, 0.18052264, 0.108745195, -0.074618496, 0.028628945, 0.06538652, 0.040662356, -0.064870596, 0.010062239, 0.10938479, 0.052858178, 0.112343654, 0.13403018, 0.0010308697, -0.10139919, 0.044524584, -0.05156515, 0.037103977, 0.1880994, 0.13616093, -0.033084806, -0.05432052, 0.056307707, 0.015816096, 0.06740183, 0.1326082, 0.086838916, 0.043519843, -0.12090508, 0.12939769, -0.14425707, -0.056202207, -0.12745199, -0.084097914, 0.02282288, 0.051763017, 0.09061563, -0.084863864, 0.056298606, -0.022979917, 0.09157019, 0.097728774, 0.07809435, 0.050732035, 0.0777522, 0.03754379, -0.07177786, -0.0046965107, 0.11829024, 0.1284968, -0.06785039, 0.08666678, 0.11294449, -0.019869106, -0.030652506, 0.08985533, 0.11348516, -0.017133681, 0.065863736, 0.05792093, -0.006459164, 0.11773754, 0.073999755, 0.10266125, 0.117492504, 0.0036546541, -0.116565086, 0.03417473, 0.106353454, -0.022959307, 0.09612328, 0.07276681, 0.092983104, 0.019875016, 0.0028376258, 0.12335233, -0.012626123, -0.08445566, 0.072616905, 0.05980662, 0.055402465, -0.08525563, 0.05800956, 0.11003674, -0.0056248675, -0.010583818, -0.08753329, -0.010345621, 0.046633277, -0.004216264, -0.058180913, -0.04301591, -0.09032051, 0.01376157, 0.047538236, 0.071515605, 0.063398995, 0.11928768, -0.09332568, 0.13095891, -0.07647624, -0.09822121, 0.083547056, -0.06681192, 0.104199514, -0.026091015, -0.09727812, 0.058943864, 0.0017498956, -0.059985135, -0.004376004, -0.107974365, 0.09236756, -0.0213545, 0.13034849, 0.02960491, -0.07524156, -0.059637308, -0.08853613, 0.11277015, -0.03280659, -0.008400861, -0.01818546, -0.09893438, -0.0954457, -0.10229969, 0.017405642, -0.061334588, -0.03962002, 0.02257681, -0.06275419, -0.038980946, 0.004873131, -0.052309006, -0.057198863, 0.062191978, -0.0011032436, 0.003140646, 0.052867863, 0.03724019, -0.07178648, -0.00455777, 0.037385065, -0.069946244, -0.070366785, -0.05259085, -0.09668844, 0.08218043, 0.020991828, 0.072786726, -0.03818391, -0.09387389, 0.05685259, -0.08370596, 0.061032627, 0.12183803, 0.059508193, 0.0038426702, 0.0563167, -0.009070912, -0.0817543, 0.043800563, 0.099495165, -0.09367279, -0.012829268, -0.076401934, -0.09433947, 0.07345904, 0.03419297, -0.015998077, -0.13219827, 0.024384962, 0.18842864, 0.14370628, -0.07687785, 0.13422446, 0.1264402, 0.17116228, 0.116730385, -0.017113632, -0.10296393, 0.0385706, -0.08453252, 0.067268595, -0.026566064, -0.07573746, 0.061142847, -0.099574886, -0.10399137, 0.1531195, -0.0076547754, 0.09622307, -0.020262826, -0.107223295, 0.06274663, -0.017542705, 0.08434642, -0.06522916, -0.015157359, 0.10371284, 0.028934402, 0.08182844, -0.0072796377, -0.0648663, 0.097124234, 0.06711154, -0.08115155, -0.10320248, 0.11170477, -0.0053685163, -0.043888167, -0.04270434, -0.031423368, -0.016688151, -0.036054436, 0.046355635, -0.012957763, -0.027449194, -0.09504687, 0.11009061, -0.065617785, 0.08565154, 0.1150101, 0.036011066, 0.07521829, -0.014825643, -0.074155904, -0.020442197, 0.016649408, 0.03680539, 0.09770998, 0.0024540059, 0.07212366, 0.10072467, 0.08950704, -0.034908473, 0.03930188, 0.08255866, -0.053203687, -0.006227361, 0.15072334, 0.07685538, 0.0047984393, 0.057124935, 0.060471874, 0.07224301, -0.09987246, -0.0296461, -0.02433548, -0.074154966, -0.03872392, -0.13339801, -0.089704834, -0.039375197, 0.062372543, -0.029319536, -0.09796979, -0.023447366, 0.10240603, 0.116825126, -0.10101951, 0.05536445, -0.04176749, 0.09273216, 0.021979064, -0.10620591, -0.027633112, -0.0024616565, -0.032852817, 0.11112001, 0.09283672, 0.08198874, 0.093314596, -0.022681704, 0.023281232, -0.039886747, -0.08871902, -0.10327965, -0.03149272, -0.017126895, -0.03704601, -0.0064822403, -0.02301237, 0.031829774, 0.012193348, -0.058329754, 0.07589114, 0.071185075, 0.086561166, 0.11305451, -0.03243579, 0.013084516, -0.11278942, -0.09068757, -0.09763194, 0.05689414, 0.21374147, -0.009082859, 0.053685717, -0.015428023, -0.02833766, -0.0022323686, 0.10713625, 0.036586918, 0.09565938, 0.015072796, 0.022681367, 0.10730288, -0.06672077, 0.09496752, -0.02115645, 0.020856038, 0.029979914, -0.024232997, 0.05637438, -0.1098904, 0.116894424, -0.024138253, 0.014499155, -0.12250207, -0.10435405, 0.03361859, -0.11442847, -0.14665636, -0.06299194, -0.049637478, 0.013652593, -0.04060086, 0.016849263, -0.0068707806, -0.0018900633, 0.14065048, -0.11251392, -0.14191069, -0.07849814, 0.07132614, 0.14319363, -0.06372115, -0.01540957, 0.042663973, -0.10976717, -0.054782685, 0.08466538, 0.10199293, 0.07843275, 0.09490367, -0.036860514, 0.06718426, 0.00247591, 0.013547848, -0.08827226, 0.013749363, -0.05734111, 0.09156235, -0.104522035, -0.008709585, -0.12694904, -0.06471561, 0.052082177, -0.0046293763, 0.12989268, 0.038343787, -0.12900893, 0.098378554, -0.086882055, 0.09193911, -0.05232148, 0.026478454, 0.041089598, -0.030618643, -0.025732126, 0.11769969, 0.04051244, -0.034784775, -0.009676427, -0.039051868, 0.0131684225, 0.049703915, -0.0114263045, 0.08173027, 0.013085077, -0.13911232, -0.09101962, -0.025883816, -0.05735301, -0.060898654, 0.04530733, 0.06157402, 0.09761516, -0.11250371, -0.03458289, 0.00091455877, 0.09121885, 0.11761553, -0.04229217, 0.10582525, -0.0413208, 0.06802512, 0.050700165, -0.033203594, 0.056202315, 0.088733025, -0.02671197, 0.09057925, 0.042287447, 0.09408497, 0.09809389, 0.06353483, -0.06430485, 0.03928589, -0.041536897, -0.07149328, 0.022559978, 0.07388728, 0.06737348, -0.09560539, -0.12121565, -0.06148174, -0.0998827, 0.026515031, 0.014807403, -0.10424553, 0.062420763, 0.15673876, -0.046832033, -0.026238626, -0.12223785, 0.097951524, 0.08205786, 0.13855441, 0.0116709685, -0.022099763, 0.019313766, 0.057050645, 0.11831953, 0.02563396, -0.02796564, -0.040285595, -0.07759253, 0.048785098, -0.020396462, -0.072134025, 0.05763704, 0.0024323752, 0.05570368, 0.060092732, -0.123409614, -0.10521482, -0.06999448, -0.11145213, -0.09248958, -0.07070053, 0.038324844, 0.076794304, -0.121625245, 0.06724369, -0.073633656, 0.093138136, -0.033878192, 0.0036196236, 0.013418146, -0.07864773, -0.09386146, 0.012332393, 0.19813277, -0.10512198, -0.12158797, 0.028844297, -0.11862822, -0.043970913, -0.00683284, -0.073897466, 0.18702005, 0.07551018, 0.10803332, -0.031425145, -3.0100688e-05, -0.092674755, 0.0068442253, 0.008633677, 0.04142584, 0.068405986, 0.009553568, 0.046571326, -0.037312817, -0.009790591, 0.06994264, 0.07759478, 0.015473226, 0.0561387, -0.029068056, 0.07550836, 0.0015968704, -0.0965053, 0.076904856, -0.09979188, -0.007325333, -0.11429064, -0.06306531, -0.108511664, 0.09131898, 0.05426976, -0.0630568, -0.053795237, 0.12468521, -0.030345295, -0.063922636, -0.010883895, -0.08596929, -0.049540225, -0.06721246, 0.08999341, -0.030459233, 0.05695246, 0.09161823, -0.0892226, -0.053941626, -0.07521938, 0.09081427, 0.024874335, 0.09179087, 0.12780586, -0.006317679, 0.115442656, 0.08595427, 0.027465234, 0.10009629, -0.019043736, -0.029220108, 0.10147445, -0.03168083, -0.0015586871, -0.0076768, -0.042063028, -0.0044591604, -0.03274659, 0.12650597, 0.12373683, 0.0823722, 0.08539056, 0.07197627, -0.030022742, 0.046502523, -0.031776257, -0.029003194, -0.09199416, -0.0065910667, 0.088589415, -0.11050031, 0.038938444, 0.063456886, -0.04046971, 0.083188064, -0.05197356, 0.08796295, 0.0223597, 0.0950593, 0.023283761, -0.029522652, -0.03156825, -0.014806432, 0.13282017, -0.056974612, 0.0035714433, -0.058566783, 0.08234377, -0.0037221313, 0.0051195496, 0.068924055, 0.035562027, 0.06285132, -0.04016183, -0.075346634, 0.12887281, 0.016829044, 0.062813655, -0.05323384, 0.10447777, -0.039455574, -0.11003957, -0.049618308, 0.07631079, 0.06680286, -0.11968116, 0.049819216, -0.083735816, 0.07053686, -0.070502415, 0.07405223, 0.08658685, -0.12973647, -0.0030465617, 0.057353593, 0.022583652, 0.0992775, 0.012063016, -0.030872488, -0.021118883, 0.059383307, 0.0042328686, -0.08564675, 0.045593664, -0.0038579358, 0.0640423, -0.1080226, -0.10311268, -0.05055893, -0.06906026, 0.055670816, 0.040164534, -0.115832634, -0.051202837, 0.07067292, -0.0031237653, -0.029641734, 0.123234354, -0.08291328, -0.05482323, 0.002394017, 0.020531364, -0.07830302, 0.11046018, 0.07647875, 0.055489648, 0.16349502, -0.0055701835, 0.06938643, -0.05172147, -0.12531587, 0.06628973, -0.05103474, 0.08019843, -0.035194248, 0.121804096, 0.08307576, 0.029209172, -0.06624888, -0.065092035, -0.0141136525, 0.013155931, -0.08750591, -0.03900705, 0.054815996, 0.07747387, 0.023421336, 0.07826835, -0.052639168, -0.010277642, -0.072800815, -0.0066903173, 0.08309965, -0.038188394, -0.046700895, 0.027697552, -0.09996394, -0.09902121, -0.09428477, 0.10262035, 0.029153727, 0.074399814, -0.11842124, 0.0959676, 0.036121413, 0.05573833, -0.014523549, -0.10607939, -0.0011421528, -0.084592134, 0.090151176, 0.023651624, 0.107232854, -0.018108575, -0.04246496, 0.09510301, -0.08598089, -0.012414405, 0.014357599, -0.055802763, 0.050676536, -0.013849819, -0.071147025, -0.053035412, -0.021827502, -0.019735694, -0.061299574, 0.05730123, -0.031905532, 0.11381077, 0.11619736, -0.06527728, 0.01834768, 0.13137461, -0.057095442, 0.08810561, -0.0143472105, 0.031006042, 0.029491529, -0.08136007, 0.13546883, -0.06747146, 0.044965517, -0.07170865, 0.008001559, 0.0207216, -0.06793786, 0.007436175, -0.10335357, 0.0704417, -0.08015389, 0.095201954, -0.048000224, 0.044060938, -0.032303303, 0.026143633, -0.113568716, -0.022297239, 0.10256659, -0.06462474, 0.09732172, -0.072386526, 0.049381137, 0.05451549, 0.11308343, 0.09557848, -0.07594913, -0.057213113, -0.10910507, -0.09720544, -0.10736158, 0.035624024, -0.08173021, 0.08182557, -0.040652204, 0.10541312, 0.119999014, 0.07961637, -0.06694976, -0.011532093, -0.10843675, -0.03830633, -0.09623881, 0.0256785, -0.10578579, -0.058825176, 0.085485086, -0.09627302, 0.048684735, -0.025352085, 0.06449825, 0.038344156, -0.10345001, -0.009273858, -0.08233426, -0.08675114, 0.09336879, 0.08063999, 0.06642256, -0.09224978, 0.03548436, 0.0102584, 0.07001192, 0.010255545, -0.022175612, -0.03921741, -0.123356506, 0.045695756, 0.090054184, -0.08019544, -0.05431009, -0.08625276, -0.020701766, -0.012817912, 0.111029826, 0.0037530356, 0.0056385524, -0.014127354, 0.10042434, -0.00063502975, -0.052614152, -0.03962663, 0.045105737, -0.072510585, 0.054275792, -0.09724325, -0.022023516, -0.10264831, 0.006885047, 0.042820476, 0.020627432, -0.055412587, 0.024499433, 0.0966825, -0.081122085, -0.086474426, 0.0007933044, -0.056412857, 0.0019465627, 0.0575605, -0.09627355, 0.064074226, 0.07243053, 0.104271665, -0.043986447, -0.023199663, -0.05020851, -7.613922e-05, -0.111231774, -0.13141277, 0.053454567, -0.035286974, -0.08574219, 0.01454326, 0.022111876, 0.015347589, 0.10404695, -0.027964268, 0.050648272, 0.055444237, -0.011159612, 0.16858594, 0.0818594, -0.011827194, -0.11349503, 0.14590694, 0.073684864, 0.008311594, -0.100933775, -0.06976843, 0.060823433, 0.035912234, -0.037681065, -0.0015780975, -0.043377556, -0.095113054, 0.03805481, 0.037697367, 0.11557831, -0.1110535, 0.07460169, 0.10820386, 0.08002712, -0.016535109, 0.0905728, 0.08867869, -0.0009289822, 0.05419304, -0.09596972, -0.0734689, 0.115039654, -0.0924259, 0.038125414, 0.049332283, 0.04165373, -0.06417257, 0.093628235, 0.111170955, 0.087278165, 0.10128146, 0.049397074, -0.018848715, -0.13240305, 0.072589315, -0.04129563, -0.11644306, -0.071597226, -0.004162342, 0.077064045, 0.121634856, -0.10466642, 0.01619353, 0.015394115, 0.0996829, 0.024351876, -0.09974669, -0.06315673, -0.039313268, 0.045740683, -0.004622395, 0.018250622, 0.12125758, 0.009473364, -0.105386704, -0.067849405, 0.12021228, -0.010539651, -0.04325549, -0.053760394, 0.0686013, 0.08584324, -0.095728315, 0.037448667, -0.11312835, -0.086170584, 0.09571935, 0.009101136, 0.02168601, -0.09249396, -0.0328025, -0.07862568, -0.084701, -0.07012303, -0.004066579, -0.034737602, -0.090626344, -0.101363815, -0.11582932, -0.04777064, -0.027191661, 0.07758757, -0.11476115, -0.0040796995, -0.045247167, -0.06808371, -0.060888063, -0.048447378, -0.055316724, -0.06155966, -0.022331871, -0.010901563, 0.09813031, 0.0008375123, 0.03427019, 0.016727798, 0.008435868, 0.11327966, -0.06615083, -0.10169568, -0.05392717, -0.06298017, -0.025989251, -0.06142403, 0.043479767, -0.057759374, -0.04644658, -0.0565228, 0.14594713, 0.053598233, 0.07888013, -0.048435465, 0.092892036, 0.075743504, -0.00209045, -0.045338474, -0.041474, 0.071895115, -0.03200822, -0.048509784, -0.0003747556, 0.022779271, 0.024802575, -0.027192041, -0.0031884792, 0.072585344, 0.09931875, 0.077981725, -0.11859457, -0.13015644, -0.015986979, -0.09276539, -0.090167634, -0.03812599, -0.072435245, -0.07786403, -0.019421365, -0.09116278, -0.018046739, -0.10292136, -0.00957435, 0.058827467, -0.1038535, -0.009758294, -0.036170263, 0.039717685, 0.058044907, -0.004889473, 0.020845491, 0.07982083, 0.0020684747, 0.06395718, -0.013849617, -0.114098996, -0.088449866, 0.0075957426, 0.109721445, 0.14765482, -0.078999944, 0.03512679, 0.04953473, 0.0031615933, 0.0041663162, -0.03451905, 0.09636754, 0.11566037, 0.09871082, 0.09193558, -0.07470572, 0.011284534, 0.0028188906, 0.06754642, -0.05202161, -0.11655772, 0.04570582, 0.03715219, -0.003379003, 0.06046109, 0.057708897, 0.0038578892, -0.019353423, -0.0026873685, -0.12531355, -0.122679345, 0.07626811, 0.015789397, 0.070079684, -0.08769885, -0.03029504, 0.120024756, 0.008432278, 0.08669665, -0.07959482, -0.09646851, -0.1389514, -0.020360757, -0.12077998, -0.004139266, 0.0782022, -0.05976027, -0.0028804566, -0.0015756949, -0.10659298, -0.059048947, -0.010311829, 0.1944838, -0.021114534, -0.084855594, 0.05285644, -0.0509897, -0.011205679, 0.019484298, 0.09382704, -0.07870959, -0.004727174, 0.06580526, -0.016266894, 0.082648315, 0.16938351, -0.10961744, 0.15732583, -0.06149738, 0.08459722, 0.08165876, 0.06945169, 0.05568, 0.010839363, -0.013564929, -0.00401156, -0.095707245, 0.10492259, -0.059564203, 0.07524185, -0.08546637, 0.037905525, 0.082753204, -0.0017363632, 0.049904995, -0.010424772, 0.07122124, 0.017904896, 0.075334445, 0.054266524, 0.13234681, -0.061713792, 0.0015561996, 0.15512751, -0.08187013, -0.06357828, 0.066266365, -0.011858774, 0.09944574, 0.1032395, -0.021875562, -0.052995425, 0.087824985, -0.044406407, -0.08271853, -0.040958904, -0.033232655, 0.010081945, 0.09117178, -0.008098949, -0.06729681, 0.11701848, 0.031360332, -0.024970366, -0.07972207, -0.08205449, 0.047544282, 0.06953601, -0.04162277, -0.027749587, -0.13202122, -0.032775752, 0.047202993, 0.09804211, 0.029993273, -0.09792966, 0.056832615, -0.01604785, -0.08140666, -0.08972523, -0.062015492, -0.0483911, -0.11113856, 0.044000257, -0.05573037, 0.11873198, 0.080760516, -0.11010058, -0.09951102, 0.04158652, -0.099578895, -0.10540885, -0.0075040134, -0.08347387, 0.077338606, -0.08918355, -0.015352158, 0.16715658, 0.015383301, -0.005392976, -0.020158088, 0.044843875, -0.061182264, -0.06255995, 0.042649694, 0.08502642, 0.080491886, -0.04477799, -0.057806063, -0.050825693, -0.02545893, 0.060552083, 0.061178584, 0.05988657, 0.17132796, 0.03830831, 0.16113992, -0.10811124, 0.08581966, -0.06872456, 0.020559847, 0.1282022, 0.09706211, -0.12447433, -0.0019690488, 0.023724338, 0.03528674, -0.051790033, 0.07700621, 0.0025970943, -0.059154823, -0.010039811, -0.00060900877, -0.108359955, -0.12020749, -0.036933336, -0.010370887, -0.07957622, -0.05120067, -0.040675182, -0.005805877, 0.0106231375, 0.07131664, 0.013711418, 0.045611333, -0.043148044, 0.053214144, -0.01286696, -0.050878257, 0.028838588, -0.09725445, -0.07051744, 0.1145087, -0.10985158, -0.09835919, -0.033668075, 0.104278885, -0.067139894, -0.009779046, -0.08694889, 0.012111203, 0.13339509, 0.08927312, -0.047315124, -0.03942626, 0.060442377, -0.025775565, -0.0118486015, 0.014643945, -0.095181055, -0.028050039, -0.06971433, 0.02765923, -0.026408136, 0.11032214, 0.032203313, -0.056908, 0.085165165, 0.09352062, 0.028411912, -0.015007945, -0.1358397, 0.01603812, -0.025375877, -0.067333326, 0.04589662, -0.028839849, -0.09926251, 0.1089542, -0.112242654, 0.07794963, 0.029235287, -0.12518255, 0.006525139, 0.04502855, -0.11033191, -0.011835758, -0.01605921, 0.0068038194, 0.03133982, -0.07010928, -0.077796206, 0.08126712, 0.070308074, 0.06475775, -0.04115103, -0.018948793, 0.06002347, 0.013214129, 0.10932394, -0.07349982, -0.12011562, 0.08996144, -0.059583023, -0.044731285, -0.014193564, -0.0027153336, -0.037867587, -0.121827245, -0.002765583, -0.079943046, -0.025916606, 0.07549469, 0.102839656, 0.08676972, -0.06483408, 0.030175813, -0.085101455, -0.006362963, 0.07390317, 0.0046114586, 0.07314332, -0.06299781, 0.047273308, 0.014175942, -0.029516397, -0.08510658, 0.0012811635, 0.055982944, -0.01632841, -0.04924459, 0.074896306, 0.12652926, 0.073245496, -0.0021640942, 0.07541212, -0.0039697452, 0.0027757862, 0.08482106, 0.015114099, 0.0684392, -0.11413981, -0.054650374, 0.075848445, -0.0522065, -0.05786417, 0.014043833, -0.060799006, -0.011420197, -0.094193034, -0.0977815, -0.10223757, -0.012348147, 0.0010579922, 0.07192787, -0.043161124, 0.07879468, -0.0026319341, 0.020087143, 0.07677409, -0.03967022, 0.115646094, 0.06446995, 0.015397726, -0.08306295, -0.042615984, 0.030502742, 0.026779663, 0.08000684, -0.11895632, 0.092141114, 0.075812, 0.08586186, 0.05162798, -0.09253175, 0.07506668, -0.1409582, -0.10532834, 0.089068435, -0.15402368, 0.19073449, 0.13756828, 0.008791216, 0.12238722, 0.03508127, -0.07031902, 0.042513147, -0.05616671, 0.07306748, 0.060141638, 0.09398436, 0.10364433, 0.023694063, 0.03820414, -0.032448255, -0.029656038, -0.113736846, 0.0772508, 0.035770956, -0.08789922, -0.011655582, -0.036732584, -0.055315785, -0.007049667, 0.028702965, 0.060974717, 0.034494363, 0.11121201, 0.015325232, -0.054844312, 0.11666664, -0.13184932, 0.16715138, -0.08976892, -0.06356026, -0.035717547, 0.0087520415, -0.075012416, 0.10169086, 0.08491557, -0.0040123025, -0.10410599, 0.057881545, 0.040631443, 0.059969727, 0.118165776, 0.07734324, -0.03294127, -0.09115759, 0.066731475, -0.14445654, 0.050005943, 0.06615595, 0.07809413, 0.060369276, 0.09394529, 0.10590488, 0.08669789, -0.018837372, -0.003854848, 0.06915956, 0.05207118, -0.037507787, -0.09811339, -0.06675779, 0.007837766, -0.08800945, 0.07307387, 0.14675425, -0.0747215, -0.1274051, -0.07300754, 0.054816574, 0.010279817, 0.0028287168, -0.13589983, 0.08396425, 0.13405576, 0.03199225, 0.082725376, 0.10202235, 0.117540374, 0.03450472, -0.096756645, 0.07350362, 0.07278708, -0.07044383, 0.07979522, -0.014158167, 0.010756947, -0.111222446, 0.069386475, 0.05183821, 0.045001574, 0.08642458, -0.007724896, 0.095317625, -0.0054538846, -0.099853665, 0.07988151, 0.1027332, 0.047274493, 0.010875173, -0.021184944, 0.010230951, -0.028216138, -0.06866531, -0.04669986, -0.039601825, 0.091032304, 0.022680797, 0.07081797, 0.0674875, 0.058844052, 0.11708232, -0.061393544, 0.07895004, -0.04115797, -0.1112089, 0.017177394, -0.056727014, -0.11605041, -0.10112951, 0.020273335, 0.013593744, 0.064605355, -0.055264767, 0.09896728, 0.08711409, 0.06727145, 0.048496924, 0.071499236, 0.04053265, 0.09012863, -0.009547423, -0.08223956, 0.07588901, 0.1289673, 0.01784806, -0.0011154193, 0.10728888, -0.11786808, -0.12719983, -0.026103182, 0.02375059, 0.036105447, -0.0012064518, 0.035918377, -0.029128265, 0.012733345, -0.07660947, -0.15053715, -0.07579738, 0.078597344, -0.088542834, 0.12955867, -0.0070428033, -0.0652666, 0.018743856, 0.056421783, 0.013605371, 0.007843622, 0.107820995, 0.08065643, -0.11746166, -0.08132813, -0.043002702, 0.018331781, -0.029984903, -0.0070134616, -0.10036669, -0.12549326, 0.08631883, 0.041064203, -0.10159816, -0.057597302, 0.08798327, -0.072444566, 0.105132066, -0.060977113, 0.10614904, 0.07253877, -0.035595383, 0.089662716, -0.043185934, 0.036672562, 0.022904202, 0.098607585, 0.088385895, 0.07816117, 0.025880575, 0.09332143, -0.09797145, -0.062051635, -0.056382198, 0.12953474, 0.050527923, 0.13450375, 0.10064815, 0.099195234, -0.028086912, 0.06263531, 0.10725521, -0.063168965, 0.0929387, -0.08228771, 0.097343236, -0.09905024, 0.028387643, 0.06393655, -0.013819661, 0.074296854, -0.06618054, 0.09948882, 0.028891576, 0.061146643, -0.15112394, 0.07335618, -0.08221625, -0.12321239, -0.010167484, -0.14498025, 0.082149245, -0.010647628, 0.10815383, 0.18504663, -0.0704162, 0.0931826, 0.14629765, -0.04250324, 0.11648653, 0.071318865, -0.040361736, 0.15069975, 0.04365379, -0.11632858, -0.11837288, 0.005653256, -0.106608994, -0.060426097, 0.026714059, 0.16181196, 0.039195523, -0.0148304785, 0.011361454, 0.06962256, -0.122889206, -0.05086522, -0.072102435, -0.081760585, -0.026253246, 0.12324077, 0.048908204, 0.101093926, -0.095234655, -0.039492838, 0.1970151, 0.12404753, -0.052482665, 0.03396296, 0.016282689, 0.053398594, -0.025361473, -0.10714118, 0.052532982, -0.007012526, 0.01697259, 0.046993136, -0.11320554, 0.13131548, -0.08712585, 0.09140153, -0.043505024, 0.020557635, 0.055698387, -0.09987312, 0.026919607, 0.04411146, 0.050270278, 0.0875871, -0.01961069, 0.010933676, 0.06823954, -0.07310783, -0.08803111, -0.0913185, -0.0672505, 0.08990162, 0.017314307, 0.033112295, -0.06691453, 0.046238642, -0.015607512, 0.034128003, 0.063062124, 0.09036388, -0.06384056, 0.037258197, -0.09996464, -0.10590327, 0.10745288, -0.035895254, 0.07365182, -0.035576973, -0.011403291, -0.0724901, 0.0872795, 0.022294577, 0.059965845, 0.011343157, 0.090936914, -0.12582392, -0.12788732, -0.030117365, 0.0032127425, -0.06456488, 0.03175639, 0.08706697, -0.05051704, 0.07787238, -0.050589614, 0.082866736, -0.035003267, 0.0952917, 0.15022919, -0.038158327, 0.07699557, 0.095489785, 0.10958304, 0.147649, 0.09988637, 0.061035812, -0.08890043, 0.023177342, 0.104004554, 0.0040427726, 0.021142403, -0.06595663, 0.059077624, -0.15476748, -0.06075448, -0.004196755, 0.014546772, -0.067217335, 0.042277068, -0.054040223, -0.06487936, -0.07450526, 0.006137411, 0.024575956, -0.12335997, -0.093500935, -0.112999536, 0.06640456, -0.025929585, 0.0635943, -0.06785303, 0.077216424, -0.06252102, 0.10879798, 0.014982402, -0.061670527, 0.038694087, -0.14100166, -0.04488398, -0.08841842, 0.08476733, 0.029018264, 0.02787829, 0.12300505, -0.10742471, 0.100748554, -0.058228415, 0.04443435, -0.04397016, -0.07891385, -0.030540477, -0.08819539, -0.0022758767, 0.09487161, 0.026862783, 0.047551796, -0.06296882, 0.00900869, -0.065131456, 0.1801538, -0.05997828, -0.04455337, 0.03408013, 0.011954565, -0.11120391, 0.07205366, 0.13649835, -0.011497724, 0.06173389, 0.07857605, 0.006578049, -0.06599877, -0.099604934, 0.11300907, 0.10294765, 0.012444065, 0.16294655, -0.040943053, 0.04410544, 0.17028618, -0.06707352, 0.013876761, -0.003887375, -0.0035202028, -0.10742747, -0.109792985, 0.010171473, -0.04577841, -0.08953746, -0.033093814, 0.0604985, 0.042121414, -0.046814278, 0.1003501, 0.11638207, -0.015065696, 0.07209393, 0.0691412, -0.04260391, 0.05958503, -0.03648001, -0.049305517, -0.119213685, 0.104550555, 0.06899768, 0.012274671, 0.012830955, -0.051022187, -0.04854752, -0.0027190985, -0.044743445, -0.081005394, -0.017680703, -0.107470274, 0.08074037, -0.0369929, -0.0744996, -0.060903125, -0.0964018, 0.01865129, 0.029620377, -0.087546796, -0.0764772, -0.024465974, 0.041740946, 0.13056472, 0.1199847, 0.09435361, -0.074073344, 0.07333439, 0.15691447, 0.019559665, -0.031917434, -0.054870293, 0.046708815, 0.007189001, 0.09606945, -0.08003879, 0.08717614, -0.03822786, -0.012022783, -0.04993514, 0.020880278, 0.07851936, -0.025389837, 0.09249214, -0.022245603, -0.12053791, -0.015784843, -0.105952844, -0.10814572, -0.079060376, -0.04511604, -0.04350321, 0.048816945, -0.023400001, -0.025970716, 0.047776956, 0.07039016, 0.05157356, 0.09689939, -0.10221429, 0.015154738, 0.058080744, -0.042156562, -0.10429128, 0.057335168, -0.012715508, 0.028110651, -0.09611495, -0.10922097, -0.062708475, -0.034033243, -0.07898942, 0.10286549, -0.061658833, -0.079825744, 0.05591187, 0.046022065, -0.05114392, -0.030175067, 0.078229696, 0.07702854, -0.16361044, -0.014994048, 0.044662956, 0.15963766, 0.056262463, -0.043745514, 0.03640115, 0.047527198, 0.12527566, 0.096148185, -0.04061305, 0.018083122, 0.12846884, 0.10510924, -0.05128638, 0.08429808, -0.013351174, 0.018008048, 0.08901035, 0.017200025, 0.033969615, -0.08506426, 0.035364024, -0.05118169, -0.016664032, -0.1223856, -0.032848623, 0.104263194, 0.1108413, 0.016146876, -0.036306858, 0.020100024, -0.050262466, 0.060291465, 0.03697697, -0.03039468, 0.008515657, 0.09711815, -0.031103862, -0.027072938, -0.039246786, -0.11239162, -0.03724912, -0.098351836, -0.07477884, 0.100413464, -0.06253491, 0.058782972, 0.025840856, 0.08500033, 0.051824234, 0.12663017, 0.037561234, 0.07775398, 0.1313179, 0.073008075, 0.070108056, -0.077137604, -0.06364611, -0.037440423, 0.0010036778, -0.007705179, 0.10562817, -0.06534411, 0.10458526, 0.09177638, -0.049917433, -0.1090259, 0.00700914, 0.047038205, -0.05048321, 0.09981013, -0.0643552, -0.011500573, -0.092537835, 0.06073191, 0.116775215, -0.019893086, -0.096548386, -0.1233837, 0.09402858, 0.05097325, -0.104601994, 0.10131629, 0.039157458, 0.12569854, -0.051524244, 0.105880715, 0.09642049, -0.104930945, 0.06027039, -0.007918693, -0.009692624, 0.11214138, 0.028881855, 0.032052793, 0.050287478, -0.013355464, 0.101761885, 0.10777455, 0.07835678, 0.0011800528, 0.052472778, 0.08188329, 0.05096633, -0.0017512292, -0.08044046, 0.060209863, 0.05246415, -0.055938955, 0.10982128, -0.043828227, 0.07911546, -0.06750992, -0.031924717, 0.016798325, 0.11379082, -0.077219434, 0.06272038, -0.03084065, 0.03277608, -0.084371164, -0.07099146, -0.05176725, -0.053128265, -0.03019623, -0.023426615, 0.09269395, -0.14567687, 0.014586255, 0.13713062, 0.08065775, 0.13169451, 0.042629804, 0.03646618, -0.009816981, 0.10120296, 0.017475577, 0.09147875, 0.09912848, 0.13867679, -0.0030532223, 0.013091834, -0.0018714723, -0.028538313, -0.06687435, -0.10717407, 0.08659728, 0.06349442, 0.10448723, -0.004569969, -0.08565556, -0.029100146, -0.0071281833, -0.024449587, 0.07969724, 0.07385911, 0.07691648, 0.009588803, 0.04392429, 0.050950658, 0.043806504, 0.08923822, -0.028150927, 0.002611915, -0.110035405, -0.01081872, -0.111322396, 0.06019872, 0.06924693, 0.07516077, 0.09884781, 0.050035987, -0.1254291, 0.055541586, 0.08248646, -0.0018426572, -0.08146966, 0.08309593, 0.16121651, 0.011055393, -0.027626071, -0.14592639, 0.10383871, -0.0979449, -0.014008805, -0.115663774, 0.10453185, -0.04217812, 0.111204505, 0.08836295, -0.07086169, 0.057810556, 0.014102625, 0.05177552, -0.08373306, 0.019304864, -0.022413086, -0.058583032, 0.11759465, -0.083766304, -0.07751343, 0.032709084, -0.05228925, -0.10875821, -0.048293926, -0.10328576, -0.108394906, -0.017259061, 0.09340915, 0.00636037, 0.13072275, 0.09755842, 0.116904125, 0.072708346, -0.0268704, 0.049470577, 0.085556515, 0.009300563, 0.059405122, -0.024617584, -0.045926914, 0.09434661, -0.021549685, -0.020426858, -0.10104193, -0.008204715, 0.0040219366, 0.038901404, -0.052479167, 0.14540383, 0.19684176, 0.098168105, 0.037601102, -0.009904492, -0.112904064, 0.18968867, 0.054827746, 0.058850348, -0.03724528, 0.10511573, -0.07142803, -0.12747096, 0.094865225, 0.21548241, -0.078336164, -0.08955862, -0.09417987, 0.14301963, 0.055328194, -0.034254637, 0.09319797, 0.1458857, 0.028731205, 0.04831938, 0.05906656, 0.07594339, 0.02908323, -0.030525424, 0.15746367, 0.08014924, 0.08639108, -0.07470051, -0.06283544, 0.021622833, -0.037978213, -0.09363946, -0.061510082, 0.049991902, 0.02179097, 0.00926927, 0.035602104, 0.0029201272, -0.053015426, -0.012205662, -0.068543814, -0.06699979, -0.03538663, 0.020685479, 0.117761165, -0.04384896, 0.08836151, 0.053792138, 0.068356626, 0.048166767, -0.11453922, -0.107478514, -0.016125003, -0.019734934, 0.08777966, -0.010611996, -0.1009718, -0.089670345, 0.033171196, 0.023045909, -0.02501251, -0.090128765, -0.020803096, 0.11740714, -0.0024381978, -0.057674736, 0.107762, -0.034491032, -0.12245133, 0.098105736, -0.10527476, -0.070324466, 0.07618204, 0.07424897, 0.07287594, 0.07483619, 0.07582276, -0.10531062, 0.013659618, -0.074165344, -0.046493076, -0.0030425673, 0.06953089, 0.00075666053, -0.107688725, 0.08103069, -0.09461929, 0.07536465, 0.01472491, 0.025157796, -0.020721832, 0.13261726, -0.058519397, 0.12533139, -0.03991776, 0.03879315, 0.009504288, 0.14584927, 0.03758937, 0.041436847, -0.054911476, -0.087470345, -0.10774114, 0.04415525, 0.033019394, 0.14158241, -0.051421206, -0.14915809, 0.0026247858, -0.0013012479, -0.1281523, 0.029817184, -0.01882837, 0.0680074, 0.004516001, 0.043040223, -0.022267245, 0.088600546, -0.022407597, 0.08026666, 0.061003767, 0.059423592, -0.05023303, 0.027533375, 0.09298002, 0.06814439, -0.06094837, -0.08078384, -0.00060000154, 0.13076784, -0.03686379, 0.06582769, -0.022057015, 0.05013285, 0.082250066, 0.046180457, 0.0021881256, -0.11603678, -0.04927086, 0.12023963, 0.03199245, 0.11914921, 0.1089028, 0.026583126, -0.039137498, 0.027294891, -0.108816445, -0.09364123, -0.053651445, -0.07466374, 0.04600985, -0.034913264, 0.06849664, -0.04939944, -0.034865465, 0.112079315, 0.11658097, -0.011757987, -0.058442798, -0.054427743, 0.0021225545, 0.01160103, 0.009504875, -0.06657829, 0.03865655, 0.08844401, -0.11329873, -0.12272962, -0.034384936, 0.15957545, 0.14149176, -0.055278912, -0.011768247, 0.1650636, 0.03534931, -0.06872168, 0.08164818, -0.027348941, -0.0819721, 0.014061046, 0.023517704, 0.035819717, -0.052988056, -0.1068779, 0.06087291, -0.03161433, -0.05155533, -0.061622392, 0.120477945, 0.046603292, 0.057530273, 0.091680355, -0.09185154, -0.092580095, 0.118196264, -0.12553638, -0.06861502, 0.027863687, -0.08486666, -0.06682977, -0.028658656, 0.07589717, -0.027745318, 0.10501921, 0.08641886, 0.0985791, -0.025573054, 0.041589953, 0.07411712, 0.028145697, 0.048786514, 0.016912246, -0.07146187, -0.0076430244, -0.10587166, -0.11030214, -0.058050167, -0.09205202, -0.049606763, 0.12976864, 0.05032755, 0.11989907, 0.014560686, -0.0013175933, 0.09189127, 0.10359953, 0.06343195, -0.05919739, -0.063640974, -0.08831852, 0.061874118, -0.08433794, -0.068893164, 0.057353526, 0.08585569, 0.0408035, 0.053109717, 0.07363592, -0.038224157, -0.024459122, 0.00956982, -0.05715007, 0.05571727, -0.07427604, 0.10659882, -0.09276853, -0.05434054, 0.084694244, -0.024357792, 0.00043605707, 0.10617306, -0.08501977, 0.032771055, -0.036791444, -0.07003861, 0.021408988, -0.1143293, -0.03988502, 0.021332096, 0.037670784, 0.102018915, 0.0387871, -0.026083885, -0.04819339, -0.08098785, -0.023403924, 0.09628223, 0.059985507, -0.047806937, 0.039935853, -0.08108367, -0.09396716, 0.027294336, 0.10617589, -0.07832298, 0.05551566, -0.026705801, 0.044938676, -0.11719651, -0.15738192, 0.061309427, 0.10154643, 0.008931181, -0.03425066, 0.04294358, 0.029993732, -0.0002120314, 0.1245195, 0.054941736, 0.026966745, -0.032053012, -0.11260325, 0.093988575, 0.12878476, -0.10479179, 0.12373258, 0.0043162797, 0.079300985, 0.0533307, -0.053433537, 0.062408183, -0.09961962, 0.056319952, 0.100202754, -0.07503711, 0.04944437, -0.07122098, 0.04644199, -0.09915383, -0.08196402, -0.04567395, -0.067410946, 0.07510713, -0.015155258, 0.050965823, 0.009615966, 0.021773607, -0.11454131, 0.08881421, 0.08154094, 0.10090279, -0.05010594, 0.11677415, -0.015831225, 0.08773822, -0.075067095, 0.08945478, -0.034153156, 0.014365474, 0.036712617, 0.08976463, 0.0692141, -0.010043858, 0.12305874, -0.024589816, 0.09120207, -0.08134762, 0.07574735, 0.088526204, 0.012137355, 0.06978726, 0.0037347546, 0.083945245, -0.1054338, 0.0052390336, 0.114684686, -0.06812708, 0.03994955, 0.074182145, 0.00713697, -0.020428313, 0.035315752, -0.037586775, 0.1405567, 0.07149177, 0.02006203, -0.08534414, 0.06787384, 0.08513749, -0.063069575, -0.050190903, -0.083491914, -0.0013582805, -0.119189814, -0.09268352, 0.042890243, 0.07294417, 0.11725079, 0.10621267, -0.07750864, 0.09223411, -0.080923185, -0.008338444, 0.03439208, 0.025788136, 0.081005566, 0.038957857, 0.033966593, -0.03146869, 0.10329681, -0.11489748, 0.063977875, 0.05140149, 0.07599617, -0.011418454, -0.02048722, 0.06216242, -0.07857327, -0.08671012, -0.09131182, -0.065164, 0.059424974, -0.071747005, -0.07056296, 0.11598172, -0.0069248974, -0.08345261, 0.07426094, -0.022440895, -0.078535184, -0.04669817, -0.010594707, -0.0590828, -0.09823405, -0.08583764, -0.024688484, -0.09492438, 0.0635088, -0.046102416, -0.052834563, 0.01623879, 0.03936658, 0.11145276, 0.103814736, -0.013584205, -0.11890818, 0.04241735, 0.13399273, 0.049741883, -0.09037522, 0.10640975, 0.07411997, -0.035844825, -0.10864335, 0.16949923, 0.08303586, -0.0032456585, -0.09857096, -0.074026264, -0.071415715, -0.023622984, -0.0672572, -0.08727742, 0.1055721, 0.081653886, -0.045518618, 0.08947331, -0.047154974, -0.116541296, 0.043452907, -0.044434424, -0.016121378, -0.04641275, 0.07889266, 0.07929458, 0.06676857, 0.048143256, 0.05836783, -0.017886715, -0.03880907, -0.11378306, -0.11583076, -0.09863991, -0.0589849, -0.013219396, -0.038214456, 0.15716359, -0.10533627, 0.16105099, 0.07379925, -0.11129493, -0.13872436, 0.10062931, -0.010513712, -0.071568236, -0.07161418, 0.0841422, -0.058656383, -0.06316491, -0.0022177994, -0.11247791, -0.08423572, -0.08602033, -0.08303893, 0.07746236, -0.060753543, -0.043680396, -0.09742898, -0.102076896, -0.09117271, 0.054007735, 0.043210052, -0.010226859, -0.011540081, 0.078728, -0.11885399, -0.033671655, -0.041757077, -0.07140559, -0.103045866, 0.044720408, -0.038098022, -0.021404456, -0.05922429, -0.013115228, -0.06387164, 0.048831854, 5.889166e-05, -0.02865205, 0.07491684, 0.042163163, 0.047558818, -0.103710614, 0.04376831, 0.0020968039, 0.06412952, 0.11129646, 0.08234597, 0.1795452, -0.08460302, 0.017685283, 0.058119535, -0.06918099, -0.038586598, -0.096110836, -0.12635025, 0.036098726, 0.008052952, 0.00030032912, 0.0392462, -0.014950965, 0.055143174, -0.05647661, -0.026400816, -0.05104029, 0.007692461, -0.018756399, -0.07321413, 0.048771627, 0.13082828, -0.10318822, -0.08385662, 0.044388477, 0.045230694, 0.09430919, -0.07200425, 0.036675323, -0.009739633, -0.009081141, -0.106897354, -0.013374647, 0.048086688, -0.049967717, 0.060725816, -0.1138271, -0.054498103, -0.07578032, 0.09533337, -0.077726066, 0.1500681, 0.0676349, -0.10188573, -0.08427281, -0.063086025, -0.07943419, 0.04776347, -0.010342186, -0.054467633, 0.03669365, 0.06596077, 0.019109823, 0.052205443, -0.020116659, -0.0666907, 0.045090374, -0.015992284, 0.00762871, -0.0130902715, -0.008546545, -0.09655969, -8.957727e-05, 0.07730923, -0.07821713, 0.056004897, -0.036642812, 0.064482555, -0.097238, 0.1354799, 0.028579919, -0.062425945, -0.04417768, 0.028502595, -0.04288692, 0.051651657, -0.036192283, 0.020602126, 0.027302586, 0.09463569, -0.070974775, -0.08714115, 0.09538834, -0.057621256, -0.13830148, -0.04766828, -0.08589223, -0.085502304, 0.07680614, -0.0886593, -0.037219062, 0.096988104, 0.015994431, -0.03256599, 0.10101941, 0.010086152, -0.054193206, 0.021761099, -0.06730823, -0.025511097, 0.00061732554, 0.0050587435, -0.06670377, -0.035066556, 0.08032094, 0.13941856, -0.019844785, 0.033103388, 0.05065688, 0.0464741, 0.0018434922, -0.15321115, 0.029854711, 0.003901507, -0.039949413, -0.068518326, 0.037760608, -0.043086167, -0.06673156, -0.06868189, 0.04799006, 0.002450337, -0.033210643, -0.11045711, -0.10273082, -0.086906575, 0.035175137, 0.054584503, -0.025727723, 0.1068707, 0.06496552, 0.10554624, 0.018661452, 0.11413849, 0.07397861, -0.027455216, 0.104191564, 0.06961949, 0.021656917, 0.006747217, 0.036882993, 0.028515248, 0.02713344, 0.03425119, 0.120282084, -0.0039644763, 0.015199842, -0.051090267, -0.10421983, 0.07235016, 0.048359804, -0.07806659, -0.11889222, 0.028829921, 0.070233405, 0.012542041, 0.07120748, 0.11114355, 0.008798129, 0.020673731, 0.16422398, 0.09817731, -0.06419078, -0.040714342, -0.011457543, 0.13564767, -0.12345297, 0.091314964, -0.047895975, 0.113042034, -0.091068074, -0.035052698, 0.029892588, -0.032902896, -0.058159556, -0.0964195, 0.04884856, 0.114384905, -0.088889845, 0.12154835, 0.055139218, 0.04090834, -0.015801614, -0.10453826, 0.029648302, -0.023869636, -0.11784015, -0.06788572, 0.00016762826, 0.0068894187, -0.073401056, -0.09237169, 0.02009294, 0.07057854, -0.11543994, -0.031474426, -0.10973935, 0.068095185, -0.020295855, -0.035172407, -0.10701361, 0.021494374, -0.064064935, -0.02145205, -0.036668677, 0.038493928, -0.07622999, 0.07192976, 0.054873943, -0.04910676, 0.044929028, -0.06905737, -0.055305783, 0.12600437, -0.055382114, 0.009781083, -0.025981322, -0.028468514, -0.050730772, -0.09209794, 0.019830208, 0.06007945, 0.06370609, -7.732563e-05, 0.04978632, -0.06598934, 0.099895924, 0.048253566, -0.06293072, -0.08141521, -0.07641912, 0.077011116, 0.09075474, 0.09050625, -0.0974887, -0.09644008, -0.05481527, -0.020364672, -0.06791043, 0.03055511, -0.0012338356, -0.0021284227, -0.011054401, -0.058515538, 0.045378286, 0.07680752, 0.01788747, -0.043786313, 0.0012011701, 0.010921781, -0.06116927, 0.024372194, 0.054288253, 0.035527162, 0.0646229, 0.07650372, -0.069529586, 0.028496012, 0.055557724, 0.020965056, -0.06881048, 0.0126685705, -0.008152233, -0.032744795, 0.0676975, -0.052786548, 0.021234278, 0.008278821, 0.056171086, -0.06135728, 0.02841175, -0.072667345, 0.021775877, -0.0808628, -0.022384131, -0.008270262, 0.10160755, -0.07586021, 0.051339846, -0.04004505, -0.016516432, -0.064077266, -0.0637282, -0.08618959, -0.0025181693, 0.05257735, -0.046422333, -0.016242407, 0.065600894, -0.038675375, -0.074929774, 0.02003625, -0.07354939, 0.02395759, 0.11042618, -0.07900987, 0.062297657, -0.0032451185, -0.049298216, 0.0125195095, 0.07607129, 0.016774397, -0.06716441, 0.06715346, -0.025000552, -0.0011175093, 0.07865545, -0.031996276, -0.035805497, -0.081780136, -0.07250752, -0.04985041, -0.033616867, -0.08744704, 0.07576388, 0.031909965, -0.01829488, -0.0096588675, 0.0029116774, 0.011533242, -0.0012172865, -0.07065009, -0.0052721463, -0.055318914, 0.026996909, 0.027007047, 0.058548283, -0.0009860611, -0.012627952, 0.0077664694, 0.040734638, -0.05943689, 0.016705714, -0.06585204, -0.026941184, 0.05715274, -0.006535027, -0.08233562, -0.037933238, 0.0024463104, -0.018183395, -0.0054633133, -0.0693427, 0.045721687, 0.029678535, -0.024417821, -0.017492978, -0.020251822, -0.0048324466, -0.03930635, 0.0705985, -0.106041834, -0.031653825, 0.034231257, 0.040020395, -0.07275191, -0.07128172, -0.040155124, 0.12895986, 0.025202796, 0.076418065, -0.05134095, -0.052736457, 0.003925082, 0.0028687466, -0.06360807, -0.04224511, 0.054256935, 0.008069867, 0.10553652, 0.05138527, 0.083022416, -0.05199217, 0.100868985, -0.012655937, -0.083480194, 0.0064895465, -0.011478748, 0.06551719, -0.04734471, 0.06591365, 0.13149768, 0.030581905, -0.023056393, -0.05011354, 0.07235716, -0.03242937, 0.1022753, -0.0040317723, -0.031983275, 0.0545592, -0.007902046, 0.027974125, 0.014400111, 0.05576945, 0.012727672, 0.037139863, 0.06739225, -0.060548466, 0.04482582, 0.020232696, -0.07591937, 0.07341001, 0.05813339, 0.004423904, -0.05788239, 0.043532867, 0.033579372, -0.018480165, 0.007532379, 0.059389304, -0.032057405, -0.0067789624, -0.027203487, -0.052233525, 0.04201669, -0.029591681, -0.06123485, -0.028193254, 0.06666374, 0.029031437, -0.005482693, -0.060967278, 0.041231815, -0.0028890239, 0.027600728, 0.06629059, 0.006719416, 0.06259916, -0.0744467, -0.036281645, -0.0137772085, 0.082076736, 0.030928053, -0.06502925, 0.014514171, -0.0141396895, 0.077832066, 0.056231923, 0.022858858, 0.038741805, -0.08246994, -0.07772261, -0.030794263, 0.03464693, -0.061813932, -0.016890563, 0.074579366, 0.03638091, -0.06764959, -0.07562411, -0.05359922, -0.006429076, -0.021172367, 0.00079169124, -0.028035384, -0.019892156, 0.058948852, 0.029229425, 0.0055055246, 0.006519161, 0.059064157, -0.065416835, -0.0698629, 0.035030425, 0.051403306, -0.034155272, 0.03600476, -0.04725526, -0.073107824, 0.007905744, -0.072529554, 0.065877564, -0.012175679, 0.029249273, 0.018547617, -0.03053562, 0.0060701594, 0.032512866, -0.008239828, 0.050505526, 0.030915022, -0.06356911, -0.03803482, 0.03196297, -0.06259672, 0.008954905, -0.0825336, -0.0119222775, 0.0522513, -0.051244378, 0.0011002198, 0.048687615, 0.056751437, 0.038767077, -0.044810675, 0.052465685, -0.068175696, -0.008212686, 0.07870446, 0.053283293, 0.058660697, 0.08473078, -0.050545953, -0.0018832834, 0.11380077, 0.030575471, -0.031969093, -0.036854524, -0.064242885, 0.022119619, 0.011030908, -0.066092186, -0.031641394, 0.020121286, 0.029068759, -0.005626728, -0.025101423, 0.045418344, -0.047118563, -0.039040256, -0.0045240065, 0.028284129, -0.06321126, 0.013121028, 0.08529829, 0.06672196, 0.028277345, -0.058518372, -0.04491275, -0.07344844, 0.06485791, 0.02661874, 0.0023046054, 0.046201736, 0.020494929, -0.053662945, -0.020795146, 0.07120393, 0.0006450983, -0.010794633, 0.05837243, 0.09961445, -0.0024070546, 0.022028394, -0.09450279, -0.002331906, 0.022956725, 0.011037812, 0.020219747, 0.13065383, 0.0026985155, -0.022266334, -0.01402319, -0.0029610076, 0.066903874, -0.04246241, -0.042219345, -0.001848701, -0.082337074, -0.07273552, -0.040304538, 0.12342001, 0.08496108, 0.059268795, 0.00035275606, -0.07847988, -0.087095596, 0.036824655, -0.059305962, 0.057713196, -0.09484374, 0.032327518, 0.0075450107, -0.08842612, 0.06400067, -0.070548736, -0.030271107, 0.015005143, 0.018085636, -0.01892856, -0.046532962, -0.045299336, -0.067299895, 0.0109268455, -0.062077545, -0.016651448, 0.055555884, -0.064424954, -0.046590064, 0.049251482, -0.045777213, 7.2392446e-05, -0.0019235833, -0.0065540513, 0.014630307, 0.032146923, 0.08968738, 0.018377366, 0.01887414, -0.029513827, 0.046397023, -0.016601104, -0.016257146, 0.015915008, 0.022337493, 0.02450451, -0.07977589, -0.101003826, 0.051354717, -0.027031634, 0.040249985, 0.06699605, 0.046529725, 0.09665031, 0.0050681536, 0.0099713225, -0.06273147, 0.010685934, -0.06876346, 0.055944428, -0.034501348, 0.013816381, 0.021058124, -0.05242961, -0.071962364, -0.05167092, 0.0132059045, 0.038893353, 0.05555066, -0.019952614, -0.072280824, -0.027582161, -0.086430885, -0.034204245, -0.026070641, -0.036584523, 0.0410799, 0.07089221, -0.023899218, 0.05247143, -0.048992474, -0.073641144, 0.05637037, -0.0517444, -0.044612255, 0.056185924, -0.05939946, 0.026160097, -0.026116943, -0.06744536, -0.081316754, -0.009345536, -0.00010841614, 0.13172115, 0.05156571, 0.05831351, -0.066919826, -0.018716292, -0.07395783, 0.10484555, 0.0626075, 0.0088874465, -0.05265449, 0.013381529, -0.02853199, 0.059093583, -0.08165668, 0.024011299, 0.056096908, 0.026276916, -0.042468682, 0.060887314, 0.020624021, 0.11186893, 0.08723817, 0.017113991, 0.056045435, -0.041762013, -0.074207254, -0.015122402, 0.01215844, -0.0011181027, 0.052247915, 0.07984366, 0.07199572, 0.010845579, -0.08004047, -0.004796884, -0.029263137, -0.013127079, 0.00046574575, 0.05791999, -0.038495682, 0.008239911, -0.0024636984, -0.020818412, -0.045075823, -0.05568172, -0.07765462, -0.041913327, -0.012383867, -0.04581921, 0.054999586, 0.03407519, -0.057881095, -0.03990293, 0.0050901803, -0.0010354146, -0.057788696, -0.08752096, -0.022296134, 0.05978105, -0.019846061, 0.06645744, -0.039260447, 0.030376852, 0.048221923, -0.039342046, -0.062143706, -0.016720928, -0.0033046827, 0.08209174, 0.005614572, -0.055528603, 0.056712635, 0.081946276, -0.0740396, 0.048884064, -0.040982746, 0.06469575, 0.0687956, 0.027800256, -0.006226418, 0.036221407, 0.0014092213, 0.015291236, 0.04408344, -0.07682707, -0.030364972, 0.02698355, 0.0104479585, 0.055059876, 0.011510193, 0.0047652945, -0.048160177, 0.02584342, 0.07543292, -0.06959236, 0.059734896, 0.07938186, 0.051303692, -0.0059549985, 0.022857018, 0.009172753, 0.039580535, 0.01657856, -0.008699732, 0.07735371, 0.013792202, 0.063606694, 0.039071117, 0.04783617, -0.090268105, 0.089540645, -0.04322986, 0.059061006, 0.01791221, -0.08189474, -0.031029409, 0.029659413, -0.012751832, 0.0523675, 0.052671514, 0.062866434, 0.002683565, 0.014554083, -0.026418507, 0.018558612, -0.019786377, -0.041272003, -0.073266834, -0.02274065, -0.083505526, 0.06657042, -0.06811435, 0.09788516, 0.031046899, 0.003322017, -0.054022606, 0.035899445, 0.11178537, 0.01625243, -0.058613718, 0.015099483, -0.054544546, -0.012961303, 0.0190014, -0.071146294, 0.08879639, 4.268166e-05, 0.023201205, -0.07152907, 0.038963143, -0.031036254, -0.05351437, -0.06381393, -0.030761434, -0.004667284, -0.037427388, -0.055044863, -0.07412956, -0.08728024, 0.0032963697, -0.076424114, 0.048813395, 0.07600975, -0.03771926, 0.08716034, -0.032842178, -0.02734938, -0.025118202, -0.064487964, -0.050152116, -0.035275877, 0.08156137, -0.052709587, 0.073435724, 0.03884645, 0.023157785, -0.08618481, 0.02949629, 0.01087645, -0.008020186, -0.024967233, 0.09465987, 0.055200882, -0.065959916, 0.05389087, 0.10832445, -0.049128346, 0.08207393, 0.0062452056, -0.046651687, 0.14094988, 0.13217716, 0.056160264, -0.05398665, -0.008511481, -0.04887121, 0.025819886, 0.049757387, 0.045092404, -0.025187293, 0.015379102, -0.04850261, 0.079555474, -0.066403404, 0.064003736, 0.07428694, -0.041469663, -0.026859581, 0.038754307, -0.0983195, -0.056619998, -0.01423043, 0.031072704, 0.00067983946, 0.08661953, 0.076445244, -0.11695044, 0.034471028, 0.0021632693, -0.019656323, 0.0024278536, -0.02895583, 0.17801642, 0.03492906, 0.040137984, -0.013845146, 0.043882936, 0.04642564, -0.04722648, -0.06051695, 0.062951535, 0.10681158, 0.07088266, 0.040323537, 0.0107803745, 0.0061117867, 0.027511964, 0.0117593715, 0.15520418, 0.011074241, -0.09162057, -0.029199643, 0.079653725, 0.12342449, -0.068654396, 0.057022538, 0.006235121, -0.018987546, -0.06746195, -0.08886372, -0.09588774, -0.047865104, -0.055085085, 0.05386502, 0.119125344, -0.03620005, -0.0583251, 0.08846132, -0.012492622, -0.06841033, -0.009213628, -0.0478945, -0.055746786, 0.056330033, -0.054624602, -0.017491553, 0.0574755, -0.038961854, -0.075861715, 0.023818253, 0.04166258, -0.06032138, -0.0359024, 0.054480735, 0.051315993, -0.06930229, 0.04523213, 0.07874919, 0.031132555, -0.055655606, -0.06543173, 0.06876466, -0.05644461, 0.0073615406, 0.033571836, 0.038969126, 0.10780872, -0.042022027, 0.021975929, -0.060026497, -0.038532145, 0.045850698, 0.11226988, 0.062050708, -0.055801086, -0.025772095, -0.016987402, -0.069810554, 0.0018124357, 0.00921661, -0.01701025, 0.07236358, -0.07785984, 0.06875568, -0.026047073, 0.028301455, 0.06521233, 0.07410164, -0.07550168, 0.029605974, -0.081038594, -0.06758088, 0.05188497, 0.02686695, 0.050437547, -0.016975414, 0.053517975, 0.07435779, -0.035067093, 0.039476275, -0.012505971, -0.03218218, -0.0795128, 0.048988916, -0.051544487, -0.03959618, -0.0599684, 0.0069988593, -0.02196616, 0.033467807, -0.039680026, 0.059431948, 0.036058523, 0.040695705, 0.042528667, -0.041594505, 0.0051591396, -0.020921629, -0.02088964, 0.05900813, 0.03614564, 0.06689604, -0.03422811, 0.028336126, -0.066287145, -0.06962623, 0.06561545, 0.043114647, 0.0020531416, 0.071825646, 0.021539308, 0.019441605, -0.01868993, -0.03401647, -0.05059008, -0.081593506, 0.06294108, 0.064758725, 0.0042232526, -0.06753208, 0.058245096, 0.035689414, 0.017089602, -0.06662215, -0.03954803, 0.03727958, -0.020364322, 0.015735421, -0.073208235, -0.060127452, -0.06959528, 4.6288304e-05, -0.005926505, -0.04206587, -0.003016663, -0.033856403, 0.070344806, 0.03290369, -0.007744922, -0.011075359, -0.048297774, 0.08605084, 0.095448956, 0.014199975, -0.009006097, 0.0768371, -0.06362397, 0.06118641, 0.027576096, 0.023151573, -0.03642408, 0.0456918, -0.07968606, 0.046804514, -0.07428232, -0.04434861, 0.060302857, 0.04702177, 0.042861473, -0.027467716, -0.0038476721, 0.092484675, 0.09639433, -0.023919672, -0.026741823, 0.09871158, -0.082178384, 0.02552567, -0.0096984, 0.032623157, -0.1027682, -0.045223195, 0.062979534, 0.07987705, -0.0001817541, -0.03041055, -0.03160434, 0.025051864, 0.09521518, -0.038152035, 0.030102294, -0.06635954, 0.12872761, 0.12205692, 0.024641233, -0.063752905, -0.015089786, 0.016964912, -0.07110672, 0.12263911, 0.054378487, 0.1312645, -0.04683143, -0.06553822, -0.017186355, 0.07798223, -0.017811254, 0.02139893, 0.07324927, 0.019515462, -0.042361703, -0.07442617, -0.043696508, 0.1446954, -0.06272239, 0.15243791, 0.1175141, -0.023418736, -0.09892647, -0.07017834, -0.09133325, 0.055208728, -0.046717454, -0.014581405, -0.09787013, -0.024305293, 0.003595079, 0.05000699, -0.061828803, -0.069207534, -0.020361396, 0.0004928841, -0.0067382907, -0.037099086, -0.08743853, -0.094779365, 0.074852735, -0.004992067, 0.03387201, 0.06590079, -0.01831186, 0.04870697, -0.046482295, 0.09422521, -0.0013191284, -0.0039427388, 0.052047227, 0.102274835, 0.11239681, 0.004396097, -0.017451951, -0.034422148, -0.049430538, 0.026599335, -0.028146151, 0.031373348, -0.004563164, -0.0039907736, 0.06229285, 0.033879336, 0.049148887, 0.013560158, -0.050039377, -0.0778099, 0.052766163, 0.05282185, 0.023225881, 0.057085697, -0.00056610745, 0.014821829, -0.041569192, -0.041134108, -0.0028639408, 0.053494006, 0.06539909, 0.062262014, 0.053683557, -0.076335855, -0.06215602, 0.055258032, -0.03729156, -0.08648557, -0.010805751, -0.011346773, -0.044512875, -0.017405612, 0.039334454, 0.07296535, 0.009084597, 0.037337936, -0.05362564, 0.09001392, 0.016817065, 0.031065304, -0.033217408, 0.033939015, 0.048772324, 0.0007446454, 0.047820453, -0.003435246, 0.07136147, -0.08991599, 0.008658211, -0.05403228, -0.04214194, 0.06390429, 0.0046494296, -0.0053156535, -0.06598276, -0.06682566, -0.050322086, 0.004744555, 0.052855223, -0.05948458, -0.0105712265, 0.008708372, 0.0045084525, 0.004269719, 0.07253688, -0.008616339, -0.027463023, 0.047771685, 0.015086671, -0.04428642, -0.0685753, -0.07313552, -0.021381292, -0.08541652, 0.0035932264, 0.046389922, -0.054063614, -0.02702522, -0.021186227, 0.05658104, 0.045026336, -0.010250969, -0.0773995, 0.03264625, 0.038304113, 0.033019755, -0.08143994, 0.03609367, 0.038763534, -0.0671508, -0.0560593, 0.05763169, 0.008808946, 0.053289793, -0.043974765, 0.06970265, 0.059199624, -0.03172289, 0.055299014, 0.010046051, 0.0038554426, -0.08787084, -0.07144935, -0.04630119, -0.01677625, 0.0043985187, 0.011203873, 0.043556686, 0.04246269, -0.011433508, 0.05911437, -0.0714321, -0.05059451, -0.011414196, -0.006698845, 0.002882675, 0.07731356, -0.05787629, 0.0019044407, -0.07698056, -0.04395736, 0.018103028, -0.03599696, 0.010340878, 0.045955945, -0.016580129, 0.057642493, 0.019407142, -0.0530736, 0.010736917, 0.012728399, 0.05377001, 0.05546753, 0.0010942784, -0.07625473, -0.08320851, 0.019578744, 0.021231398, 0.05253998, -0.069394164, 0.029693633, 0.011669917, 0.05350745, -0.052233137, -0.010256945, -0.021219868, -0.061385605, -0.05559702, 0.07872516, -0.012393251, -0.04240688, -0.01448631, -0.023291437, -0.022126257, 0.05670286, -0.020368129, 0.06367009, 0.06636038, -0.042483218, -0.028042, 0.008905624, -0.09598873, 0.00077231036, 0.027869688, 0.035865206, -0.019627687, -0.00037292673, 0.013176248, -0.01747169, 0.05675361, 0.042172533, -0.053984445, 0.059271704, -0.0994555, 0.03246989, 0.06731445, 0.084107555, 0.025359416, 0.0369664, 0.087393455, 0.021220867, 0.0031321256, -0.0061378763, 0.024138125, -0.03965469, 0.039471574, -0.03347628, -0.013086307, 0.0030287232, 0.03159835, -0.060418, -0.06743764, -0.06754592, 0.099048235, 0.05974484, 0.02899161, 0.016626032, -0.02863852, -0.02101141, 0.07483044, 0.10387754, 0.002304859, -0.053068437, 0.047321267, -0.12043103, 0.033660855, -0.04865201, 0.03212719, -0.030071145, -0.060157277, 0.05767735, 0.08793929, -0.01322787, 0.018966518, 0.018447427, 0.06813133, 0.10238354, 0.07979134, 0.009488462, -0.043057323, 0.15423627, 0.035158515, -0.03746568, -0.05273865, -0.012284639, -0.0018838998, 0.11024572, 0.03855429, 0.076888464, 0.16007578, 0.059567355, 0.01850611, -0.007266835, 0.05962695, 0.013573333, 0.047882218, 0.010502007, 0.12779185, 0.055991657, -0.06445141, -0.02216602, 0.11858542, 0.0061410884, 0.06460843, -0.05877168, -0.04494734, -0.039977998, -0.010394483, -0.077437565, 0.011482471, 0.011766874, -0.070699334, 0.01632149, 0.065745495, 0.09781298, -0.042363837, -0.06617561, 0.02526488, -0.013416043, -0.03578281, 0.07068489, 0.052774392, -0.053443223, 0.039184686, -0.09473445, 0.054351687, 0.06661662, 0.04882354, -0.012976214, 0.022901487, 0.029029083, 0.065966375, 0.061405823, -0.03182691, -0.042629145, 0.032062657, 0.028283304, -0.0030303916, -0.009454258, 0.0017155292, 7.9786936e-05, 0.04508505, 0.024528323, -0.05250153, -0.063071914, -0.04157837, 0.058889367, 0.041039392, 0.076584496, 0.045050345, 0.015464335, 0.015250478, 0.04765539, 0.064335406, -0.04098637, -0.066059925, -0.041054875, 0.028333116, -0.021216309, -0.037702218, -0.081632495, -0.07127911, -0.013990863, 0.026072986, 0.038637225, -0.057185225, 0.043070845, 0.053784557, -0.0068055126, -0.024633754, 0.011917126, 0.0058519603, -0.064888984, 0.08752804, 0.09096598, 0.07048849, 0.038481534, -0.061517116, -0.030601924, 0.0986927, 0.016014552, 0.016914027, -0.09570604, -0.038640276, -0.0028702528, 0.03100576, 0.06185991, 0.034460254, -0.044590123, -0.02171473, -0.075204834, -0.04265419, 0.062766336, -0.006314096, -0.030184858, -0.006545351, 0.048522606, -0.072390825, 0.021130817, 0.0575856, 0.016279697, -0.015337181, -0.0479731, -0.0029867208, 0.04844007, 0.06866302, -0.040537894, 0.023536595, 0.011386295, -0.021095188, -0.09243476, -0.08282697, -0.08349971, 0.0010016432, 0.03814182, -0.07224061, -0.033234376, -0.0717863, -0.050630957, -0.07681908, 0.062188797, -0.088633455, 0.031705398, -0.019971395, -0.039535552, -0.11181751, 0.027925238, 0.020184802, 0.005921896, 0.049074832, -0.023294717, 0.051675852, 0.04794202, -0.08579786, -0.023153292, -0.05053526, 0.028055135, -0.07268709, 0.08769884, -0.08654768, 0.054829292, -0.016931102, 0.0013514499, 0.03601926, -0.08389226, 0.090467736, 0.06839395, -0.06602152, 0.08785989, -0.035004526, 0.06996441, 0.014183626, 0.054724745, -0.081043795, -0.08002717, 0.07243218, -0.00012590921, 0.023285069, -0.06229881, -0.032838587, 0.07836384, -0.040511597, -0.0008608119, -0.026290389, 0.00095136673, 0.030330243, -0.069728926, 0.012680507, -0.046155058, 0.0251496, 0.028655857, -0.03252019, 0.0678164, 0.03781581, 0.061117142, 0.0602201, 0.05718666, 0.026819674, -0.036215026, -0.00637049, -0.002284828, -0.0057345177, 0.059498783, 0.057207163, 0.05494143, -0.05579068, -0.010962401, 0.06730982, -0.032682996, 0.0069805044, -0.0033853916, 0.037971776, 0.06764374, 0.05362523, -0.010050021, -0.08125665, 0.041013703, 0.07963935, -0.081311375, -0.01725568, -0.051058017, 0.018566404, 0.030330934, 0.04113389, 0.019319214, 0.046103515, 0.054926388, -0.025667747, 0.050888848, 0.07360633, 0.050514437, 0.023575705, -0.03443263, 0.07279416, -0.06823949, -0.0449729, 0.029361378, -0.044988766, -0.02610775, -0.0054393914, 0.055668186, 0.07199707, -0.082731284, 0.03391637, -0.0125641925, -0.08266616, -0.0677445, -0.03124525, 0.07226841, 0.059167575, 0.0239109, -0.02197057, 0.033088353, 0.050791867, -0.047415912, 0.068923004, 0.040735677, -0.02299126, 0.05254839, -0.0059331083, -0.05301804, 0.068412624, 0.022426846, -0.056938127, -0.06672214, 0.0010606274, 0.07640062, 0.06113268, -0.0007288232, 0.07856011, 0.07060196, -0.042208243, 0.07391244, 0.058999475, -0.021466695, 0.066947475, 0.05316884, 0.024860313, -0.064808, -0.020109957, -0.058494013, -0.006906248, -0.027518766, -0.041586243, 0.07278064, 0.05453909, -0.044807237, 0.050376646, -0.0050060377, 0.025534976, -0.005589746, -0.07268347, -0.01355817, 0.05414618, -0.023853045, -0.043754477, 0.016360955, 0.05718234, 0.03138733, -0.0051165544, 0.02808965, 0.03917176, 0.070126235, 0.061179828, 0.015786093, 0.0682012, 0.008488259, -0.04753292, -0.0046962895, -0.03098469, -0.06597614, 0.051071733, 0.019233713, 0.044026434, -0.0148641495, -0.0051176045, -0.06864468, -0.0029631401, -0.072980784, 0.059049003, -0.06624691, 0.065430045, 0.07793838, 0.032236572, 0.046770968, 0.058625698, 0.041061774, 0.042739548, -0.06739415, -0.028767917, 0.039724972, 0.06133774, -0.029233377, -0.028185064, 0.032340527, 0.065349616, -0.11535441, -0.049943786, -0.0014089512, -0.015379701, 0.028472874, 0.073080145, 0.012417548, -0.012922857, 0.06875975, 0.00446876, 0.0029083034, 0.089204416, -0.05845629, 0.074888825, 0.05468908, 0.037895225, -0.08490307, 0.07568156, 0.036325604, 0.062928535, -0.08240332, 0.05670191, -0.0572255, 0.032067563, 0.043485276, 0.0071603805, 0.055293467, -0.03190158, 0.054009594, -0.069670334, -0.035285734, -0.068331145, 0.050782587, 0.017459478, 0.07845162, 0.04028749, 0.046052445, -0.05173707, 0.01477249, 0.06760224, 0.028003689, 0.023423098, -0.03910857, 0.060397476, 0.048405904, -0.0014957786, 0.010882653, -0.04152102, 0.04117992, 0.064768195, 0.044715863, -0.044284817, 0.006241522, -0.035989415, 0.021908956, -0.019265424, 0.03980022, -0.08095586, 0.032793682, 0.043163694, 0.04931574, 0.038771708, -0.03894216, 0.06528942, -0.068369165, -0.07008735, -0.014394261, -0.03887567, 0.058931477, 0.0007783372, -0.017252972, 0.003175613, -0.028744426, 0.07639533, 0.06506503, 0.0049733003, 0.03564698, 0.040696975, -0.062280234, -0.042921122, -0.06963968, 0.054876745, 0.025494426, 0.026458304, -0.038196843, -0.034431946, -0.041247603, 0.01814513, -0.056286532, -0.07551361, -0.08997337, -0.059984326, -0.04421305, 0.077909365, 0.090423636, 0.088129394, 0.020492751, -0.059967354, -0.05926088, -0.01567208, -0.007534215, -0.07838319, -0.026989393, 0.017259903, -0.062293556, -0.033492193, 0.0212087, -0.082103185, -0.05491604, 0.107413806, 0.07237258, 0.010173153, -0.025919786, 0.039947245, -0.03328426, -0.021541651, -0.070584506, -0.043602105, -0.0768134, -0.08137348, 0.02147859, 0.018135298, -0.08712985, -0.0894647, -0.004657599, -0.007869168, 0.073039904, 0.019210612, 0.0048131393, 0.05308011, -0.070976675, 0.030008359, 0.007977775, 0.067505136, 0.001826241, 0.013946764, 0.05433071, -0.0895791, 0.046669148, -0.07005916, -0.070994586, 0.005529365, 0.023855757, -0.029354304, 0.0024013147, -0.00790021, -0.06481819, -0.059417415, -0.0035113005, -0.014437191, 0.012534658, -0.046962604, 0.022029057, 0.029260233, -0.03256162, 0.0012138571, -0.01854258, 0.026930194, 0.08853462, -0.044089712, -0.03556654, 0.0476205, -0.0016413907, -0.0035320476, -0.08803927, -0.056215167, -0.029508317, 0.045337528, 0.039979942, 0.08628786, 0.04034284, 0.11892547, 0.00924336, 0.034940958, 0.0058640526, -0.04475224, 0.13485296, -0.084686264, 0.005868259, -0.0027220247, 0.109858945, 0.023549236, -0.006300498, 0.0070933406, -0.037241828, 0.052579228, -0.054340977, 0.04512292, -0.05006387, -0.021076642, -0.045379233, -0.011152969, -0.011987111, 0.0968683, 0.031465832, -0.060603637, 0.026950879, -0.0065456564, -0.026284596, 0.09592012, 0.028873503, 0.036648788, 0.0005320975, -0.01273703, -0.07329141, -0.047882613, -0.01721844, 0.071700275, -0.075776465, 0.048416194, 0.14106618, 0.0667483, -0.0032620258, -0.021557068, -0.023154328, -0.01730663, -0.027974846, 0.036835402, 0.050181128, -0.07588183, -0.095205486, 0.05909264, -0.015810303, 0.02955381, 0.002478944, -0.03424824, -0.044749644, -0.004638329, 0.03323455, 0.044452634, 0.02722495, 0.02854955, 0.019287655, 0.048889965, -0.022738948, 0.0056951456, -0.022855652, 0.06387982, 0.12746845, 0.022175886, 0.051661566, 0.053271063, 0.059666783, -0.01158064, -0.015243998, 0.044959854, 0.035899878, -0.05990433, 0.0029922994, 0.01325761, -0.044426836, -0.013572522, 0.07061737, -0.06352205, 0.036776908, 0.027788168, -0.00866845, 0.04190505, -0.003631224, 0.002792171, -0.022289192, -0.035154272, -0.06767565, -0.035068143, 0.011852012, 0.062225346, -0.048345868, 0.078165695, 0.0461586, -0.017652435, 0.14807582, -0.030846681, 0.081913255, -0.06453601, -0.051077608, 0.12390069, -0.042514537, -0.051046427, -0.088355385, 0.048458952, 0.03575587, 0.025892114, 0.0065249302, 0.07242009, -0.06467023, 0.059112877, -0.021751719, -0.038974077, -0.016639099, 0.03757639, -0.08162676, 0.010383552, -0.0001757706, 0.054203194, 0.032790598, 0.020038266, -0.03982412, 0.08384743, 0.05224702, 0.032188017, 0.06535928, -0.024620496, -0.09143621, -0.051031753, 0.09128858, -0.043393213, -0.054001514, 0.0032205584, 0.03205065, 0.05937756, 0.03347791, -0.011902216, -0.031108208, 0.11943426, -0.059291873, 0.0080912635, -0.00720505, -0.0750889, 0.07972187, 0.028712505, -0.04425654, 0.031649485, 0.05930946, -0.013059445, -0.05702951, 0.083087385, -0.011399673, 0.039073013, -0.0494103, 0.03172376, -0.07292506, 0.023037424, 0.031555794, 0.021083556, 0.06949443, -0.025279712, -0.05166881, -0.04027006, 0.10489606, -0.08778875, -0.058999162, -0.081095, -0.011481953, -0.030744452, -0.07314394, -0.013052537, -0.07343788, -0.074044906, 0.03791097, 0.029396461, 0.003954762, 0.055892747, 0.07655888, -0.028029867, 0.030388156, 0.020981142, 0.064167105, -0.007685754, -0.06525236, 0.025958784, 0.04280889, 0.07180021, 0.04027295, 0.06921067, 0.028072903, -0.04419347, -0.019271024, -0.012604226, -0.0484371, -0.036398467, -0.067396134, 0.05417747, -0.09254602, 0.035575084, -0.06435492, -0.0021482594, -0.07904988, -0.037896, -0.037078544, 0.06333637, 0.07031761, -0.030732125, -0.009984455, -0.054168634, 0.081952, -0.03889658, -0.044512417, -0.033995032, -0.06957566, -0.04870903, -0.038199782, -0.043644767, 0.09778173, -0.067831546, 0.050243627, -0.064938955, -0.0109603675, 0.05019262, -0.003193304, 0.06572168, 0.010786226, -0.052295938, -0.0767446, 0.08263186, 0.016310079, -0.07674085, -0.0711873, 0.007829631, 0.08248058, -0.0014164071, 0.06612139, 0.043636985, 0.012846797, -0.08735244, 0.1014977, -0.025168039, -0.05612876, -0.009873445, -0.026230592, -0.0037638773, -0.06659521, 0.042097118, -0.019371122, -0.0072222212, -0.075619094, -0.04307636, 0.024794202, 0.010305499, 0.051102675, 0.01071662, -0.03453328, 0.075836055, -0.028115747, 0.07399948, -0.017772827, 0.05217313, 0.013860813, -0.05612873, -0.0015342543, 0.0015028474, -0.07520692, -0.0626108, 0.07213932, 0.046162825, -0.04742137, 0.009610427, 0.032096203, -0.010096466, 0.048565038, -0.00079777354, -0.052448932, 0.06353174, -0.024897538, 0.016956383, -0.08774171, -0.017369289, 0.014742878, 0.005075847, -0.007986304, -0.0777409, 0.07085012, -0.07832286, -0.054771964, -0.076546304, -0.08178773, 0.0043215402, -0.00402916, 0.04855227, 0.07889355, 0.045376252, 0.1267692, 0.04232828, 0.11702095, -0.022232657, -0.04790369, -0.035679355, -0.08013067, 0.09138509, 0.10511479, 0.045949984, 0.045143325, -0.017018437, -0.00045234425, -0.033543855, -0.014916321, 0.1087571, 0.041664068, 0.04288295, 0.040929228, -0.051693577, -0.008191286, -0.009933386, 0.0018483308, 0.02792863, 0.07740364, 0.081848346, -0.062449753, 0.077540524, -0.010970089, 0.052233774, 0.06870841, -0.0061768442, -0.0048227464, -0.06554194, -0.06300046, 0.092557386, -0.041680753, -0.052090056, -0.057507653, -0.08406875, -0.028087387, -0.059196085, -0.0010022554, 0.052429594, 0.06623358, 0.015769092, -0.018906089, 0.006750668, 0.07117849, 0.085563965, 0.08093934, 0.072902165, 0.01344291, -0.029562727, -0.0049097417, 0.11003456, 0.16057345, 0.06535089, 0.07809695, 0.070107505, -0.11354693, 0.06283941, -0.04712475, -0.03366794, -0.06788306, -0.034765143, -0.05271501, 0.053114552, -0.06256284, 0.024153724, 0.058101755, -0.07162099, -0.02284156, 0.05024479, -0.004138521, -0.058539253, -0.024017815, -0.07027844, 0.016204445, 7.170061e-05, -0.020508092, 0.045230977, -0.015817236, 0.075269826, -0.07180852, 0.022054799, 0.008710708, -0.07468925, -0.06685339, 0.06739897, -0.080214836, 0.0025677537, -0.0027336744, -0.050940454, -0.085031345, 0.035709698, 0.09609056, 0.038440865, -0.037088096, -0.012245526, 0.020155607, 0.02117733, 0.02280278, -0.015315692, 0.07722111, -0.031058477, -0.046387732, 0.033585973, -0.07806975, -0.06921399, -0.08454561, 0.010067379, 0.05382122, 0.030612243, 0.022255482, -0.047260806, -0.010990551, -0.026909275, -0.02517403, 0.0014310327, 0.06929782, 0.0015200742, -0.011852525, -0.05884634, -0.09435201, 0.08063651, -0.0162725, -0.05949979, -0.056200445, 0.006987139, 0.019630386, -0.013056458, -0.036459863, 0.016378477, -0.05883963, 0.017424002, -0.04667283, -0.088432826, 0.031270508, -0.07741626, 0.04590879, 0.043536138, -0.08696166, 0.040944338, 0.02855297, 0.0011503095, 0.06348402, -0.048521217, 0.05065559, -0.102305666, 0.044510707, 0.06150828, -0.058292788, -0.06546602, -0.07657591, -0.0214566, 0.015351719, -0.056140166, -0.06667367, -0.084778406, 0.038337536, -0.07228332, 0.05687036, -0.086466685, 0.06941812, -0.058118552, 0.05022772, 0.014369846, -0.05682936, -0.061442867, 0.013516846, -0.05971808, 0.011718394, 0.04948641, 0.025355052, -0.04851154, -0.00081631, 0.014864018, 0.109074265, 0.04149899, 0.06339197, -0.049443096, -0.038893513, -0.01732043, 0.041435234, -0.085578285, 0.003150352, -0.024491038, -0.010484967, -0.022535805, -0.021501305, 0.019202435, 0.047182877, 0.062092464, -0.005281063, -0.061551332, -0.07522656, 0.0044335816, 0.015753329, -0.013021414, -0.019784156, -0.0632123, 0.03897065, 0.02857744, 0.08503253, -0.005664174, -0.037257962, -0.016918287, 0.011998108, -0.05895479, -0.026079115, -0.0016986952, 0.048949156, -0.116413765, 0.06978751, -0.0152865965, 0.019165484, 0.019206056, -0.00403644, -0.00014489352, -0.0721176, -0.09209929, -0.099629715, -0.03622386, -0.04098753, 0.060651902, -0.049777623, -0.02603364, 0.029082501, 0.0058660493, -0.0782163, -0.065763645, -0.06035791, -0.055993453, -0.012571866, -0.069537625, -0.013649588, -0.010491626, 0.04258655, 0.014658542, -0.003870467, 0.052638352, 0.12806202, -0.07336268, 0.0053881267, -0.09234245, 0.045760617, 0.047571603, 0.036782794, -0.06019762, -0.014464336, -0.039906442, -0.13310352, 0.06673798, -0.04835699, 0.0019036698, 0.02155707, 0.11814635, -0.0061500208, 0.054320034, -0.02666517, -0.03582048, 0.063663185, -0.045288924, -0.0011991322, 0.11583803, -0.08414929, -0.047365405, 0.048139144, -0.07888372, 0.06646355, 0.054396704, -0.077480696, 0.06939541, 0.0044374755, 0.03570749, -0.08491172, 0.114736535, 0.026258672, 0.11438655, 0.06504083, 0.049800232, -0.062451612, 0.050775245, -0.018096521, 0.021021612, 0.011794755, 0.009091138, -0.06362098, -0.020748256, 0.05736385, 0.07829309, 0.017137818, -0.056717318, 0.05134362, -0.027046049, 0.020437334, -0.04102491, -0.04846212, 0.008046088, 0.037249025, -0.07742342, -0.022688363, 0.075236425, 0.061110273, -0.049696285, 0.011729289, -0.0785133, 0.038332067, -0.0062251613, -0.06930008, -0.029601587, 0.0028346716, -0.011797376, 0.042642515, -0.072497524, 0.032651093, 0.021510465, -0.026664736, 0.038243733, 0.0500815, 0.031511046, 0.04014665, 0.05988612, 0.05635097, 0.057427026, 0.07681992, 0.03652016, -0.0485365, 0.03358805, 0.0023666248, -0.034466885, 0.03748878, 0.047454305, -0.05950455, -0.05175694, 0.015508972, -0.07196178, 0.067388095, 0.0047849417, 0.07015891, 0.021570362, 0.070979096, 0.018351555, 0.017167307, 0.025769055, -0.005569279, 0.01292938, 0.045195974, 0.076254286, -0.06728101, 0.014199235, -0.0086779, -0.059829097, 0.08148625, -0.07899517, 0.0048049465, 0.07875452, -0.06998857, 0.008510888, 0.05594834, 0.002867423, 0.04698547, -0.041071933, -0.052220047, -0.02864657, -0.06377723, -0.05870521, -0.04297924, 0.0010654926, -0.07943563, -0.06874224, 0.07072172, -0.02516685, -0.050838053, -0.017615102, 0.02045431, -0.07899028, -0.02537191, 0.02492223, 0.03447237, -0.07422932, -0.058006883, -0.032339264, -0.07751057, -0.00046060127, -0.024336983, 0.07079563, 0.042518836, 0.06836429, 0.13635297, -0.03869679, 0.027433394, -0.055617176, 0.030221319, -0.030929273, 0.09825371, -0.04341332, 0.042788353, -0.036562838, 0.023162812, 0.036337197, -0.06957869, -0.0623768, 0.01240143, -0.08194188, -0.028537082, -0.078696445, -0.01944335, 0.11364373, -0.027283136, 0.013416875, -0.067624986, -0.06432893, -0.08857446, 0.041891396, 0.11877656, 0.00478124, -0.013011088, -0.09315837, -0.05392834, 0.015741307, 0.072664805, -0.070489265, 0.03360316, 0.004402765, 0.08187913, -0.009479892, 0.039536312, 0.021034604, 0.02463358, 0.022913637, 0.030639263, -0.016157364, 0.028354878, -0.061081864, 0.061302923, -0.07743398, -0.023521172, -0.06718147, -0.044852655, 0.011407898, 0.056075945, 0.039703883, 0.029393949, 0.08579447, 0.10385536, -0.029519396, -0.08042709, 0.05104385, 0.023641124, -0.04231914, 0.04926343, -0.0074612657, 0.010204096, -0.10105572, -0.020284725, -0.0049095596, 0.06505781, -0.0028505882, -0.0948712, 0.07818959, 0.030975558, -0.08464176, 0.04373352, -0.08925567, -0.06530916, 0.034835655, -0.009403252, -0.0048445943, 0.051682387, 0.025068516, 0.054540914, -0.035244096, -0.033918444, 0.0639853, -0.056031723, 0.014761919, -0.0064936117, -0.048737597, 0.0021482129, -0.07030582, 0.06386805, -0.07954003, -0.06715483, 0.059147995, -0.057183363, -0.06311886, -0.06974211, -0.012113196, 0.03204412, -0.031159751, -0.027621806, -0.042287953, -0.065426186, -0.08299362, 0.015477538, 0.000557327, 0.07308267, -0.009911546, 0.05949209, 0.046638343, 0.05628388, -0.06421648, 0.024500798, 0.036179587, -0.07502079, -0.06327391, -0.0048980177, 0.03027702, 0.046319887, -0.029954819, -0.019694665, 0.0881156, -0.05806408, -0.06274236, -0.09201854, 0.0129781095, 0.08262497, 0.019975586, -0.010776387, 0.061094373, -0.00043377618, -0.024567889, 0.08224693, -0.07717299, -0.062303618, 0.046606995, 0.044271234, -0.07112641, -0.015999531, 0.012878143, 0.019301316, -0.08341235, 0.07647677, -0.04921156, -0.10481065, -0.04593314, 0.0068444395, -0.030658277, -0.042973727, 0.06946078, -0.045410533, -8.3099956e-05, 0.032397725, -0.065233506, -0.07715141, -0.0016017362, 0.0912531, 0.047565755, 0.059413288, -0.05607851, 0.11535825, 0.05598176, 0.028940637, 0.0023876943, -0.15519993, 0.035729494, 0.027806964, -0.11744372, 0.038527243, -0.062394794, -0.006949882, 0.001515872, -0.06692667, 0.034999803, -0.037130993, 0.021959778, 0.06403137, -0.06752631, -0.046189193, 0.05910456, 0.028685434, 0.018862711, -0.07139496, 0.023251701, -0.0047754645, -0.046309054, -0.077685595, -0.07683664, 0.06917995, -0.055067204, 0.047808055, 0.0009235963, 0.0106246695, -0.026558042, -0.071210764, 0.033519246, -0.08746936, 0.056303717, -0.035594046, -0.042087674, 0.018257005, 0.0030257702, 0.028458044, 0.06998726, 0.044948243, 0.045298003, 0.07714113, 0.05609364, 0.043156303, -0.0428649, -0.05119928, -0.016147695, -0.028776493, 0.07148842, -0.048319995, -0.077296734, -0.08074022, -0.016937338, 0.008818005, 0.07162985, 0.07693156, 0.008998108, -0.07157922, -0.057849072, 0.054425754, -0.042265933, 0.08822385, -0.0017467961, -0.030021548, 0.083355196, -0.049346708, -0.04336736, -0.036632895, 0.071368076, 0.045710277, -0.06970084, 0.06355381, -0.073528364, 0.040697016, -0.00046046823, -0.06955727, -0.032149278, 0.05493755, 0.029219735, 0.041416906, -0.058116, -0.028969169, -0.075103216, -0.086576186, -0.009364049, -0.043850906, -0.089522414, -0.08545362, 0.07975605, 0.011006015, -0.05293448, -0.09584715, -0.041551366, -0.020560365, 0.027414419, 0.009672284, -0.016214432, 0.033086088, -0.039470773, -0.0726908, -0.015729418, 0.024632314, -0.025209364, -0.006579217, 0.07915813, 0.01697879, -0.007553233, -0.012965731, -0.057776004, -0.026574755, 0.047210567, -0.019817924, 0.06438285, 0.08491269, -0.0023109033, 0.0994296, 0.1040392, 0.03607879, 0.09303344, -0.07064341, -0.02387929, -0.07539665, -0.0664874, -0.055336855, 0.053865485, 0.015050176, -0.016089033, 0.059359383, -0.007667468, 0.045025308, 0.011286327, 0.042492624, -0.08513587, 0.00015184346, 0.024184939, 0.055207554, -0.04056504, 0.028973842, -0.08802794, -0.07637019, -0.07414275, -0.07147632, 0.06759126, 0.0955033, -0.054505892, 0.022877604, -2.3663324e-05, 0.11944739, 0.028585734, 0.04993044, 0.047629766, -0.015388764, 0.05018857, 0.017221143, 0.039772272, 